{"learner":{"attributes":{"scikit_learn":"{\"_estimator_type\": \"classifier\"}"},"feature_names":["OBI5","OBI25","OBI400","NTR_10s","mid_std_2s","spread_bps","hour_of_day","trade_flow_10s","trade_count_10s","cumulativeVolume_5bps"],"feature_types":["float","float","float","float","float","float","int","float","int","float"],"gradient_booster":{"model":{"cats":{"enc":[],"feature_segments":[],"sorted_idx":[]},"gbtree_model_param":{"num_parallel_tree":"1","num_trees":"300"},"iteration_indptr":[0,1,2,3,4,5,6,7,8,9,10,11,12,13,14,15,16,17,18,19,20,21,22,23,24,25,26,27,28,29,30,31,32,33,34,35,36,37,38,39,40,41,42,43,44,45,46,47,48,49,50,51,52,53,54,55,56,57,58,59,60,61,62,63,64,65,66,67,68,69,70,71,72,73,74,75,76,77,78,79,80,81,82,83,84,85,86,87,88,89,90,91,92,93,94,95,96,97,98,99,100,101,102,103,104,105,106,107,108,109,110,111,112,113,114,115,116,117,118,119,120,121,122,123,124,125,126,127,128,129,130,131,132,133,134,135,136,137,138,139,140,141,142,143,144,145,146,147,148,149,150,151,152,153,154,155,156,157,158,159,160,161,162,163,164,165,166,167,168,169,170,171,172,173,174,175,176,177,178,179,180,181,182,183,184,185,186,187,188,189,190,191,192,193,194,195,196,197,198,199,200,201,202,203,204,205,206,207,208,209,210,211,212,213,214,215,216,217,218,219,220,221,222,223,224,225,226,227,228,229,230,231,232,233,234,235,236,237,238,239,240,241,242,243,244,245,246,247,248,249,250,251,252,253,254,255,256,257,258,259,260,261,262,263,264,265,266,267,268,269,270,271,272,273,274,275,276,277,278,279,280,281,282,283,284,285,286,287,288,289,290,291,292,293,294,295,296,297,298,299,300],"tree_info":[0,0,0,0,0,0,0,0,0,0,0,0,0,0,0,0,0,0,0,0,0,0,0,0,0,0,0,0,0,0,0,0,0,0,0,0,0,0,0,0,0,0,0,0,0,0,0,0,0,0,0,0,0,0,0,0,0,0,0,0,0,0,0,0,0,0,0,0,0,0,0,0,0,0,0,0,0,0,0,0,0,0,0,0,0,0,0,0,0,0,0,0,0,0,0,0,0,0,0,0,0,0,0,0,0,0,0,0,0,0,0,0,0,0,0,0,0,0,0,0,0,0,0,0,0,0,0,0,0,0,0,0,0,0,0,0,0,0,0,0,0,0,0,0,0,0,0,0,0,0,0,0,0,0,0,0,0,0,0,0,0,0,0,0,0,0,0,0,0,0,0,0,0,0,0,0,0,0,0,0,0,0,0,0,0,0,0,0,0,0,0,0,0,0,0,0,0,0,0,0,0,0,0,0,0,0,0,0,0,0,0,0,0,0,0,0,0,0,0,0,0,0,0,0,0,0,0,0,0,0,0,0,0,0,0,0,0,0,0,0,0,0,0,0,0,0,0,0,0,0,0,0,0,0,0,0,0,0,0,0,0,0,0,0,0,0,0,0,0,0,0,0,0,0,0,0,0,0,0,0,0,0,0,0,0,0,0,0,0,0,0,0,0,0,0,0,0,0,0,0],"trees":[{"base_weights":[-1.7982083E-3,3.4362918E-1,-9.786891E-1,4.6671033E-1,-5.175368E-1,-3.5047737E-1,-1.280892E0,6.16971E-1,1.03244625E-1,-2.680409E-1,-8.802993E-1,-1.5076296E-1,-1.197498E0,-9.480203E-1,-1.8429409E0,7.6691765E-1,4.066343E-1,3.9760068E-1,-2.697413E-1,-8.198078E-1,-1.4863501E-1,-5.290278E-1,-1.3360049E0,2.533405E-2,-1.1109738E0,-1.0203068E0,-2.3009455E0,-6.126242E-1,-1.3919559E0,-1.5262347E0,-2.3504207E0,4.1745123E-2,2.911221E-2,2.5002802E-2,5.728386E-3,3.078231E-2,7.98486E-3,9.7278197E-4,-2.7717588E-2,-3.024519E-2,-6.7652546E-2,-3.7332583E-2,-4.3465532E-3,-8.2776934E-2,-2.4000762E-2,-7.495031E-2,-2.6793545E-2,1.00539075E-2,-1.39949685E-2,-1.2747756E-1,-4.317033E-2,-3.545065E-2,-6.0226228E-2,-1.7529923E-2,-1.2053708E-1,-1.9390611E-2,-4.478648E-2,-6.075379E-2,-1.0478573E-1,-6.49208E-2,-1.097453E-1,-9.195766E-2,-1.3105975E-1],"categories":[],"categories_nodes":[],"categories_segments":[],"categories_sizes":[],"default_left":[1,0,0,1,0,0,0,0,0,0,0,0,0,0,0,0,0,0,0,0,0,0,0,0,0,0,0,0,0,0,0,0,0,0,0,0,0,0,0,0,0,0,0,0,0,0,0,0,0,0,0,0,0,0,0,0,0,0,0,0,0,0,0],"id":0,"left_children":[1,3,5,7,9,11,13,15,17,19,21,23,25,27,29,31,33,35,37,39,41,43,45,47,49,51,53,55,57,59,61,-1,-1,-1,-1,-1,-1,-1,-1,-1,-1,-1,-1,-1,-1,-1,-1,-1,-1,-1,-1,-1,-1,-1,-1,-1,-1,-1,-1,-1,-1,-1,-1],"loss_changes":[1.1678565E4,2.71052E3,1.7154766E3,1.2216973E3,2.88995E2,4.9684912E2,1.1384219E3,4.9857373E2,7.188992E2,1.2479385E2,2.0707251E2,4.026157E2,1.0489685E2,5.696643E2,3.573662E2,1.15012695E2,1.7974072E2,1.8963165E2,2.3777193E2,3.7004242E1,5.753171E1,3.9201874E1,7.216351E1,1.0813569E2,1.2701285E2,2.6193787E1,1.4575684E1,1.3865735E2,2.002898E2,2.0791724E2,1.1050391E2,0E0,0E0,0E0,0E0,0E0,0E0,0E0,0E0,0E0,0E0,0E0,0E0,0E0,0E0,0E0,0E0,0E0,0E0,0E0,0E0,0E0,0E0,0E0,0E0,0E0,0E0,0E0,0E0,0E0,0E0,0E0,0E0],"parents":[2147483647,0,0,1,1,2,2,3,3,4,4,5,5,6,6,7,7,8,8,9,9,10,10,11,11,12,12,13,13,14,14,15,15,16,16,17,17,18,18,19,19,20,20,21,21,22,22,23,23,24,24,25,25,26,26,27,27,28,28,29,29,30,30],"right_children":[2,4,6,8,10,12,14,16,18,20,22,24,26,28,30,32,34,36,38,40,42,44,46,48,50,52,54,56,58,60,62,-1,-1,-1,-1,-1,-1,-1,-1,-1,-1,-1,-1,-1,-1,-1,-1,-1,-1,-1,-1,-1,-1,-1,-1,-1,-1,-1,-1,-1,-1,-1,-1],"split_conditions":[2.6623936E0,8.533712E-1,1.4E1,1.3030058E0,1.1582918E0,7.956267E-1,4.4922936E-1,2.0743366E-1,1.4E1,1.663383E4,1.4E1,6.263231E0,6.263231E0,1.009E3,1.107543E-2,1.5E1,1.6E1,3.5071958E-2,-3.473657E-2,1.106073E-2,-1.8442035E-2,1.389773E4,2.505855E4,2.274825E-1,1.096624E4,5.17E2,1.0451631E-2,1.1044921E-2,1.0090867E1,5.9433994E0,4.027556E0,4.1745123E-2,2.911221E-2,2.5002802E-2,5.728386E-3,3.078231E-2,7.98486E-3,9.7278197E-4,-2.7717588E-2,-3.024519E-2,-6.7652546E-2,-3.7332583E-2,-4.3465532E-3,-8.2776934E-2,-2.4000762E-2,-7.495031E-2,-2.6793545E-2,1.00539075E-2,-1.39949685E-2,-1.2747756E-1,-4.317033E-2,-3.545065E-2,-6.0226228E-2,-1.7529923E-2,-1.2053708E-1,-1.9390611E-2,-4.478648E-2,-6.075379E-2,-1.0478573E-1,-6.49208E-2,-1.097453E-1,-9.195766E-2,-1.3105975E-1],"split_indices":[3,1,6,3,3,1,1,1,6,9,6,3,3,8,5,6,6,1,1,5,2,9,9,1,9,8,5,5,4,3,3,0,0,0,0,0,0,0,0,0,0,0,0,0,0,0,0,0,0,0,0,0,0,0,0,0,0,0,0,0,0,0,0],"split_type":[0,0,0,0,0,0,0,0,0,0,0,0,0,0,0,0,0,0,0,0,0,0,0,0,0,0,0,0,0,0,0,0,0,0,0,0,0,0,0,0,0,0,0,0,0,0,0,0,0,0,0,0,0,0,0,0,0,0,0,0,0,0,0],"sum_hessian":[3.460482E4,2.5566008E4,9.038812E3,2.2369754E4,3.1962546E3,2.9372505E3,6.101561E3,1.5825799E4,6.5439546E3,1.8958381E3,1.3004165E3,2.3787368E3,5.5851355E2,3.8354192E3,2.266142E3,9.236158E3,6.58964E3,3.6574258E3,2.8865288E3,3.351945E2,1.5606437E3,7.3679474E2,5.636217E2,2.0117424E3,3.6699445E2,4.8455353E2,7.396006E1,2.1875056E3,1.6479136E3,1.400277E3,8.658651E2,6.745762E3,2.4903965E3,4.9915845E3,1.5980553E3,1.9067019E3,1.7507239E3,1.4326525E3,1.4538763E3,2.41953E2,9.324148E1,1.4389117E2,1.4167524E3,2.7986834E1,7.088079E2,4.6678296E2,9.683876E1,1.2771061E3,7.3463635E2,5.1153313E1,3.1584113E2,1.8374902E2,3.008045E2,4.388681E0,6.957138E1,1.2219238E3,9.655817E2,1.3212806E3,3.2663297E2,1.0488228E3,3.514542E2,3.0519318E2,5.6067194E2],"tree_param":{"num_deleted":"0","num_feature":"10","num_nodes":"63","size_leaf_vector":"1"}},{"base_weights":[-7.5924036E-4,3.401631E-1,-8.7664276E-1,4.6079755E-1,-4.7250268E-1,-3.0171788E-1,-1.1462302E0,6.315092E-1,1.5246636E-1,-2.65239E-1,-8.2067096E-1,-6.2496822E-2,-8.8755435E-1,-8.479076E-1,-1.6286967E0,7.6700103E-1,4.2867646E-1,3.9412683E-1,-2.3443331E-1,-1.8476301E-1,-6.0494095E-1,-2.181535E-1,-1.1250099E0,1.04245365E-1,-8.3783174E-1,-7.342993E-1,-2.04264E0,-5.653244E-1,-1.2258683E0,-1.3704801E0,-2.0797734E0,4.142411E-2,2.9840548E-2,2.5220117E-2,8.560376E-3,2.993388E-2,7.1088797E-3,4.7304123E-3,-2.2818636E-2,-2.1092342E-2,-4.2633107E-3,-1.2646389E-2,-3.6380123E-2,-4.427252E-2,-4.711479E-3,-4.5228265E-2,-7.830827E-2,-1.6004542E-2,1.0995707E-2,-3.1678375E-2,-1.02537476E-1,-2.2489643E-2,-5.3120375E-2,-8.114312E-2,-1.4259061E-1,-1.01666665E-2,-3.73785E-2,-3.668266E-2,-7.0098825E-2,-4.482695E-2,-8.114674E-2,-3.8286127E-2,-1.07976235E-1],"categories":[],"categories_nodes":[],"categories_segments":[],"categories_sizes":[],"default_left":[1,0,0,1,0,0,0,0,0,0,0,0,0,0,0,0,0,0,0,0,0,0,0,0,0,0,0,0,0,0,0,0,0,0,0,0,0,0,0,0,0,0,0,0,0,0,0,0,0,0,0,0,0,0,0,0,0,0,0,0,0,0,0],"id":1,"left_children":[1,3,5,7,9,11,13,15,17,19,21,23,25,27,29,31,33,35,37,39,41,43,45,47,49,51,53,55,57,59,61,-1,-1,-1,-1,-1,-1,-1,-1,-1,-1,-1,-1,-1,-1,-1,-1,-1,-1,-1,-1,-1,-1,-1,-1,-1,-1,-1,-1,-1,-1,-1,-1],"loss_changes":[1.035974E4,2.4486836E3,1.5058867E3,1.1444331E3,2.3257074E2,4.3513068E2,9.495801E2,3.8398438E2,7.2499347E2,5.5189377E1,2.2027399E2,2.8554257E2,1.5637714E2,4.357417E2,2.8850635E2,8.67832E1,1.0919934E2,2.457832E2,2.1783029E2,3.8652508E1,1.6356781E1,3.3449814E1,7.4910034E1,8.939409E1,9.425131E1,7.353494E1,2.61846E1,1.5443628E2,1.4956738E2,1.8999023E2,9.2654785E1,0E0,0E0,0E0,0E0,0E0,0E0,0E0,0E0,0E0,0E0,0E0,0E0,0E0,0E0,0E0,0E0,0E0,0E0,0E0,0E0,0E0,0E0,0E0,0E0,0E0,0E0,0E0,0E0,0E0,0E0,0E0,0E0],"parents":[2147483647,0,0,1,1,2,2,3,3,4,4,5,5,6,6,7,7,8,8,9,9,10,10,11,11,12,12,13,13,14,14,15,15,16,16,17,17,18,18,19,19,20,20,21,21,22,22,23,23,24,24,25,25,26,26,27,27,28,28,29,29,30,30],"right_children":[2,4,6,8,10,12,14,16,18,20,22,24,26,28,30,32,34,36,38,40,42,44,46,48,50,52,54,56,58,60,62,-1,-1,-1,-1,-1,-1,-1,-1,-1,-1,-1,-1,-1,-1,-1,-1,-1,-1,-1,-1,-1,-1,-1,-1,-1,-1,-1,-1,-1,-1,-1,-1],"split_conditions":[2.5975513E0,8.533712E-1,1.4E1,1.0750347E0,1.4E1,6.655478E-1,4.4922936E-1,2.4838799E-1,1.5E1,1.9537926E0,6.6239685E-1,5.9433994E0,6.6399183E0,1.009E3,1.1090784E-2,1.5E1,2.4738256E-10,1.2708005E-1,-2.5603956E-1,1.071781E-1,9.045617E-1,-1.6417634E-2,1.1049364E-2,2E0,1.2139886E1,8.757681E-1,9.272052E0,-6.11496E-1,3.3134334E0,6.75E2,2.3283064E-10,4.142411E-2,2.9840548E-2,2.5220117E-2,8.560376E-3,2.993388E-2,7.1088797E-3,4.7304123E-3,-2.2818636E-2,-2.1092342E-2,-4.2633107E-3,-1.2646389E-2,-3.6380123E-2,-4.427252E-2,-4.711479E-3,-4.5228265E-2,-7.830827E-2,-1.6004542E-2,1.0995707E-2,-3.1678375E-2,-1.02537476E-1,-2.2489643E-2,-5.3120375E-2,-8.114312E-2,-1.4259061E-1,-1.01666665E-2,-3.73785E-2,-3.668266E-2,-7.0098825E-2,-4.482695E-2,-8.114674E-2,-3.8286127E-2,-1.07976235E-1],"split_indices":[3,1,6,3,6,1,1,1,6,4,3,3,3,8,5,6,4,1,1,2,1,2,5,6,3,1,4,1,4,8,4,0,0,0,0,0,0,0,0,0,0,0,0,0,0,0,0,0,0,0,0,0,0,0,0,0,0,0,0,0,0,0,0],"split_type":[0,0,0,0,0,0,0,0,0,0,0,0,0,0,0,0,0,0,0,0,0,0,0,0,0,0,0,0,0,0,0,0,0,0,0,0,0,0,0,0,0,0,0,0,0,0,0,0,0,0,0,0,0,0,0,0,0,0,0,0,0,0,0],"sum_hessian":[3.468941E4,2.4971078E4,9.718333E3,2.1744176E4,3.2269019E3,3.1036646E3,6.614668E3,1.3994075E4,7.7501006E3,2.0249675E3,1.2019343E3,2.2053452E3,8.983195E2,4.0907542E3,2.5239138E3,8.38641E3,5.607666E3,4.770422E3,2.9796792E3,1.6396254E3,3.8534222E2,4.0451877E2,7.974156E2,1.8164365E3,3.889086E2,7.959813E2,1.023382E2,2.3435703E3,1.7471838E3,1.6102247E3,9.13689E2,6.1551323E3,2.2312773E3,4.331718E3,1.2759479E3,2.6313489E3,2.1390728E3,1.2007E3,1.7789791E3,4.8277524E2,1.1568501E3,1.0115948E2,2.8418274E2,6.143229E1,3.430865E2,5.3578534E2,2.6163022E2,3.883226E2,1.4281139E3,3.3545947E2,5.344913E1,4.2885648E2,3.6712482E2,7.134002E1,3.0998184E1,7.861954E2,1.5573749E3,4.631185E2,1.2840654E3,5.627878E2,1.047437E3,5.3493176E1,8.601958E2],"tree_param":{"num_deleted":"0","num_feature":"10","num_nodes":"63","size_leaf_vector":"1"}},{"base_weights":[4.2293657E-4,3.63457E-1,-7.154595E-1,5.4542106E-1,-1.4455238E-1,-2.0630385E-1,-9.81355E-1,6.725986E-1,2.5608665E-1,1.0034212E-1,-4.55952E-1,9.895545E-2,-5.9086066E-1,-8.046158E-1,-1.5861489E0,7.908144E-1,5.2915335E-1,5.876991E-1,-9.989532E-3,2.5746244E-1,-2.6434514E-1,-3.0622235E-1,-8.446708E-1,2.5260976E-1,-6.3532627E-1,-4.1489726E-1,-1.2134516E0,-5.247627E-1,-1.0973328E0,-1.3032612E0,-1.9210951E0,4.5143746E-2,3.5886373E-2,3.180241E-2,1.806597E-2,3.7834335E-2,2.0056058E-2,1.6675131E-2,-7.945441E-3,-9.2618365E-4,1.7999273E-2,1.3862612E-2,-2.8361155E-2,-4.0360253E-2,-8.860843E-3,-2.402556E-2,-6.233095E-2,-8.8883815E-3,1.7918032E-2,-8.1018105E-2,-1.8905174E-2,-1.0352935E-2,-3.7039626E-2,-4.059836E-2,-9.486654E-2,-6.625806E-3,-3.403614E-2,-4.5161575E-2,-7.523061E-2,-4.870203E-2,-7.816029E-2,-8.1651315E-2,-1.0661234E-1],"categories":[],"categories_nodes":[],"categories_segments":[],"categories_sizes":[],"default_left":[0,0,0,0,0,0,0,0,0,0,0,0,0,0,0,0,0,0,0,0,0,0,0,0,0,0,0,0,0,0,0,0,0,0,0,0,0,0,0,0,0,0,0,0,0,0,0,0,0,0,0,0,0,0,0,0,0,0,0,0,0,0,0],"id":2,"left_children":[1,3,5,7,9,11,13,15,17,19,21,23,25,27,29,31,33,35,37,39,41,43,45,47,49,51,53,55,57,59,61,-1,-1,-1,-1,-1,-1,-1,-1,-1,-1,-1,-1,-1,-1,-1,-1,-1,-1,-1,-1,-1,-1,-1,-1,-1,-1,-1,-1,-1,-1,-1,-1],"loss_changes":[9.014779E3,2.1276946E3,1.5797046E3,6.2321875E2,4.63094E2,4.7045508E2,8.1696094E2,1.987627E2,4.568482E2,1.9496901E2,1.5506586E2,2.525229E2,1.9326575E2,4.8520044E2,1.590791E2,5.1519775E1,9.505359E1,7.206659E1,1.4714912E2,6.728206E1,1.6842462E2,1.24638306E2,1.07439514E2,8.432339E1,9.692772E1,9.354503E1,1.03921814E2,1.8573389E2,2.2653833E2,7.783154E1,4.100952E1,0E0,0E0,0E0,0E0,0E0,0E0,0E0,0E0,0E0,0E0,0E0,0E0,0E0,0E0,0E0,0E0,0E0,0E0,0E0,0E0,0E0,0E0,0E0,0E0,0E0,0E0,0E0,0E0,0E0,0E0,0E0,0E0],"parents":[2147483647,0,0,1,1,2,2,3,3,4,4,5,5,6,6,7,7,8,8,9,9,10,10,11,11,12,12,13,13,14,14,15,15,16,16,17,17,18,18,19,19,20,20,21,21,22,22,23,23,24,24,25,25,26,26,27,27,28,28,29,29,30,30],"right_children":[2,4,6,8,10,12,14,16,18,20,22,24,26,28,30,32,34,36,38,40,42,44,46,48,50,52,54,56,58,60,62,-1,-1,-1,-1,-1,-1,-1,-1,-1,-1,-1,-1,-1,-1,-1,-1,-1,-1,-1,-1,-1,-1,-1,-1,-1,-1,-1,-1,-1,-1,-1,-1],"split_conditions":[4.06E2,6.8355036E-1,1.4E1,1.5E1,8.757681E-1,3.6110812E-1,7.335526E-1,-4.4864174E-2,1.29E2,1.5E1,2.6E2,1.256E3,1.033E3,8.61E2,1.1010203E-2,8.9E1,1.49E2,-5.480239E-2,-5.7760674E-1,1.766858E4,1.06E2,1.667636E4,1.3E1,2E0,1.332704E4,8.370779E-1,6.0809717E0,-5.7760674E-1,1.1113303E-2,7.11E2,7.65E2,4.5143746E-2,3.5886373E-2,3.180241E-2,1.806597E-2,3.7834335E-2,2.0056058E-2,1.6675131E-2,-7.945441E-3,-9.2618365E-4,1.7999273E-2,1.3862612E-2,-2.8361155E-2,-4.0360253E-2,-8.860843E-3,-2.402556E-2,-6.233095E-2,-8.8883815E-3,1.7918032E-2,-8.1018105E-2,-1.8905174E-2,-1.0352935E-2,-3.7039626E-2,-4.059836E-2,-9.486654E-2,-6.625806E-3,-3.403614E-2,-4.5161575E-2,-7.523061E-2,-4.870203E-2,-7.816029E-2,-8.1651315E-2,-1.0661234E-1],"split_indices":[8,1,6,6,1,1,1,1,8,6,8,8,8,8,5,8,8,1,1,9,8,9,6,6,9,1,4,1,5,8,8,0,0,0,0,0,0,0,0,0,0,0,0,0,0,0,0,0,0,0,0,0,0,0,0,0,0,0,0,0,0,0,0],"split_type":[0,0,0,0,0,0,0,0,0,0,0,0,0,0,0,0,0,0,0,0,0,0,0,0,0,0,0,0,0,0,0,0,0,0,0,0,0,0,0,0,0,0,0,0,0,0,0,0,0,0,0,0,0,0,0,0,0,0,0,0,0,0,0],"sum_hessian":[3.468294E4,2.301347E4,1.1669471E4,1.6944107E4,6.069364E3,4.004644E3,7.664826E3,1.1768562E4,5.1755464E3,3.3982378E3,2.671126E3,2.2333262E3,1.7713179E3,5.9350767E3,1.7297494E3,6.4466978E3,5.3218643E3,2.302949E3,2.8725974E3,2.3754128E3,1.0228249E3,1.9309309E3,7.40195E2,1.8479417E3,3.8538458E2,1.383602E3,3.8771582E2,3.0370652E3,2.8980115E3,9.430521E2,7.866973E2,2.5358708E3,3.910827E3,3.24776E3,2.0741042E3,1.2052329E3,1.0977161E3,8.6800574E2,2.0045916E3,6.438483E2,1.7315646E3,3.6690518E2,6.5591974E2,3.9325226E2,1.5376786E3,3.906565E2,3.495385E2,3.6423624E2,1.4837053E3,7.7603355E1,3.0778122E2,8.4681775E2,5.3678436E2,2.470531E2,1.4066273E2,8.650717E2,2.1719937E3,1.9670092E3,9.310023E2,4.2027136E2,5.2278076E2,3.4013165E2,4.4656564E2],"tree_param":{"num_deleted":"0","num_feature":"10","num_nodes":"63","size_leaf_vector":"1"}},{"base_weights":[4.3393155E-3,3.82061E-1,-6.192566E-1,5.52517E-1,-1.0840718E-1,-1.5508981E-1,-8.639598E-1,6.6535586E-1,2.8724837E-1,1.0526299E-1,-3.7956965E-1,3.820431E-2,-6.878971E-1,-6.6844213E-1,-1.2542329E0,7.693343E-1,4.8947042E-1,6.120961E-1,5.5926867E-2,3.3052784E-1,-1.0048689E-1,-8.261245E-1,-2.6265526E-1,1.7750888E-1,-7.1604496E-1,-5.2916527E-1,-1.3856872E0,-4.0147668E-1,-9.601508E-1,-1.108884E0,-1.7948323E0,4.18804E-2,3.2601964E-2,2.8082177E-2,1.0901979E-2,3.9275367E-2,2.2105051E-2,1.4770283E-2,-8.415492E-3,9.921921E-3,2.641869E-2,4.661814E-3,-2.5525361E-2,-2.980863E-2,-6.8450525E-2,3.47834E-4,-2.025696E-2,2.479793E-2,3.4055326E-3,-2.7116695E-2,-9.45419E-2,-4.4425897E-2,-1.7897803E-2,-1.1182499E-1,-5.5639792E-2,-3.054549E-3,-2.54736E-2,-4.429732E-2,-8.194836E-2,-4.5315493E-2,-7.3180564E-2,-8.507719E-2,-1.2758122E-1],"categories":[],"categories_nodes":[],"categories_segments":[],"categories_sizes":[],"default_left":[1,0,0,0,0,0,0,0,1,1,0,0,0,0,0,0,0,0,0,0,0,0,0,0,0,0,0,0,0,0,0,0,0,0,0,0,0,0,0,0,0,0,0,0,0,0,0,0,0,0,0,0,0,0,0,0,0,0,0,0,0,0,0],"id":3,"left_children":[1,3,5,7,9,11,13,15,17,19,21,23,25,27,29,31,33,35,37,39,41,43,45,47,49,51,53,55,57,59,61,-1,-1,-1,-1,-1,-1,-1,-1,-1,-1,-1,-1,-1,-1,-1,-1,-1,-1,-1,-1,-1,-1,-1,-1,-1,-1,-1,-1,-1,-1,-1,-1],"loss_changes":[8.159661E3,1.8037646E3,1.4839946E3,4.7884375E2,3.2255234E2,4.648819E2,6.51209E2,2.0463867E2,3.5922983E2,1.444136E2,1.27648834E2,3.484361E2,1.316258E2,4.4349097E2,2.2023535E2,5.5402344E1,8.1603516E1,5.79245E1,1.501882E2,3.8654892E1,1.2950658E2,6.179779E1,7.480748E1,9.743591E1,1.03459015E2,5.9790955E1,4.6438293E1,1.09561066E2,1.3433716E2,1.59323E2,3.3776367E1,0E0,0E0,0E0,0E0,0E0,0E0,0E0,0E0,0E0,0E0,0E0,0E0,0E0,0E0,0E0,0E0,0E0,0E0,0E0,0E0,0E0,0E0,0E0,0E0,0E0,0E0,0E0,0E0,0E0,0E0,0E0,0E0],"parents":[2147483647,0,0,1,1,2,2,3,3,4,4,5,5,6,6,7,7,8,8,9,9,10,10,11,11,12,12,13,13,14,14,15,15,16,16,17,17,18,18,19,19,20,20,21,21,22,22,23,23,24,24,25,25,26,26,27,27,28,28,29,29,30,30],"right_children":[2,4,6,8,10,12,14,16,18,20,22,24,26,28,30,32,34,36,38,40,42,44,46,48,50,52,54,56,58,60,62,-1,-1,-1,-1,-1,-1,-1,-1,-1,-1,-1,-1,-1,-1,-1,-1,-1,-1,-1,-1,-1,-1,-1,-1,-1,-1,-1,-1,-1,-1,-1,-1],"split_conditions":[2.0307243E0,6.9507897E-1,1.4E1,1.5E1,8.817284E-1,7.229833E-1,5.741265E-1,1.2708005E-1,3.9714518E-1,5.2734655E-1,1.663383E4,5.5337973E0,1.033E3,4.2213697E0,6.263231E0,7.825593E-1,1.1757932E0,-9.605056E-2,-2.0265521E-1,2.177153E4,1.5E1,1.1057733E-2,4.404153E-1,-6.358288E-1,1.2139886E1,3E0,1.47342E4,-6.9707566E-1,1.0772543E1,1.1072143E-2,3.647E3,4.18804E-2,3.2601964E-2,2.8082177E-2,1.0901979E-2,3.9275367E-2,2.2105051E-2,1.4770283E-2,-8.415492E-3,9.921921E-3,2.641869E-2,4.661814E-3,-2.5525361E-2,-2.980863E-2,-6.8450525E-2,3.47834E-4,-2.025696E-2,2.479793E-2,3.4055326E-3,-2.7116695E-2,-9.45419E-2,-4.4425897E-2,-1.7897803E-2,-1.1182499E-1,-5.5639792E-2,-3.054549E-3,-2.54736E-2,-4.429732E-2,-8.194836E-2,-4.5315493E-2,-7.3180564E-2,-8.507719E-2,-1.2758122E-1],"split_indices":[3,1,6,6,1,1,1,1,3,3,9,3,8,3,3,3,3,1,1,9,6,5,3,1,3,6,9,1,3,5,8,0,0,0,0,0,0,0,0,0,0,0,0,0,0,0,0,0,0,0,0,0,0,0,0,0,0,0,0,0,0,0,0],"split_type":[0,0,0,0,0,0,0,0,0,0,0,0,0,0,0,0,0,0,0,0,0,0,0,0,0,0,0,0,0,0,0,0,0,0,0,0,0,0,0,0,0,0,0,0,0,0,0,0,0,0,0,0,0,0,0,0,0,0,0,0,0,0,0],"sum_hessian":[3.4637508E4,2.157187E4,1.3065639E4,1.6008178E4,5.5636914E3,4.5114097E3,8.5542295E3,1.122873E4,4.7794478E3,3.112406E3,2.4512852E3,3.3117979E3,1.1996117E3,5.7027236E3,2.851506E3,7.0526533E3,4.1760767E3,1.9864952E3,2.7929524E3,1.4851642E3,1.627242E3,5.061006E2,1.9451847E3,2.7967812E3,5.150166E2,9.8016296E2,2.194487E2,2.980128E3,2.7225955E3,2.2520962E3,5.9940985E2,4.4501074E3,2.602546E3,3.2972136E3,8.788631E2,9.797822E2,1.006713E3,1.3502678E3,1.4426846E3,8.9298175E2,5.921824E2,1.1061582E3,5.2108374E2,3.5846198E2,1.4763858E2,6.7321387E2,1.2719708E3,7.133136E2,2.0834675E3,4.5122012E2,6.3796486E1,3.1358887E2,6.665741E2,4.9798203E1,1.696505E2,7.185363E2,2.2615916E3,2.4584604E3,2.6413498E2,1.4380045E3,8.1409174E2,5.3941376E2,5.999606E1],"tree_param":{"num_deleted":"0","num_feature":"10","num_nodes":"63","size_leaf_vector":"1"}},{"base_weights":[5.631098E-4,3.627755E-1,-5.7048625E-1,5.008772E-1,-2.0416228E-1,-1.3505197E-1,-7.941225E-1,6.1773556E-1,2.2935705E-1,3.5978545E-2,-4.1398436E-1,3.5598833E-2,-6.8080336E-1,-4.6612635E-1,-1.0494736E0,7.4907297E-1,4.128014E-1,5.2271795E-1,-4.9273442E-2,2.6418406E-1,-1.6819E-1,-1.7491163E-1,-7.276457E-1,2.1232244E-1,-4.4083768E-1,-5.2786165E-1,-1.2485985E0,-1.2886776E-1,-6.774989E-1,-8.831109E-1,-1.4103836E0,3.98994E-2,2.7415583E-2,2.5718058E-2,1.2085945E-2,3.614622E-2,1.7055731E-2,1.06358295E-2,-1.4050047E-2,6.555715E-3,3.0261476E-2,-2.1441678E-2,5.834515E-4,1.2680741E-3,-1.4642027E-2,-4.7950204E-2,-1.4982029E-2,1.8814726E-2,-2.3960632E-3,-1.4127723E-2,-6.447484E-2,-4.2481553E-2,-1.8595066E-2,-1.0232591E-1,-5.038897E-2,-1.0716397E-2,1.4810378E-2,-2.7608788E-2,-5.3500343E-2,-3.2374572E-2,-5.789076E-2,-6.610712E-2,-1.0005718E-1],"categories":[],"categories_nodes":[],"categories_segments":[],"categories_sizes":[],"default_left":[1,0,0,0,0,0,0,0,0,0,0,0,0,0,0,1,0,0,0,0,0,0,0,0,0,0,0,0,0,0,0,0,0,0,0,0,0,0,0,0,0,0,0,0,0,0,0,0,0,0,0,0,0,0,0,0,0,0,0,0,0,0,0],"id":4,"left_children":[1,3,5,7,9,11,13,15,17,19,21,23,25,27,29,31,33,35,37,39,41,43,45,47,49,51,53,55,57,59,61,-1,-1,-1,-1,-1,-1,-1,-1,-1,-1,-1,-1,-1,-1,-1,-1,-1,-1,-1,-1,-1,-1,-1,-1,-1,-1,-1,-1,-1,-1,-1,-1],"loss_changes":[7.173389E3,1.6616721E3,1.3105122E3,5.4116406E2,2.0954172E2,4.256371E2,7.437954E2,3.2045264E2,4.200026E2,9.051479E1,1.6616452E2,2.9345306E2,9.32175E1,2.7756744E2,2.9761572E2,7.049219E1,8.078003E1,9.050629E1,1.6020213E2,4.1467545E1,4.8087467E1,2.9821064E1,9.441443E1,1.0851065E2,1.2595027E2,4.2579895E1,3.998282E1,5.4745697E1,1.1660779E2,2.2028955E2,7.67439E1,0E0,0E0,0E0,0E0,0E0,0E0,0E0,0E0,0E0,0E0,0E0,0E0,0E0,0E0,0E0,0E0,0E0,0E0,0E0,0E0,0E0,0E0,0E0,0E0,0E0,0E0,0E0,0E0,0E0,0E0,0E0,0E0],"parents":[2147483647,0,0,1,1,2,2,3,3,4,4,5,5,6,6,7,7,8,8,9,9,10,10,11,11,12,12,13,13,14,14,15,15,16,16,17,17,18,18,19,19,20,20,21,21,22,22,23,23,24,24,25,25,26,26,27,27,28,28,29,29,30,30],"right_children":[2,4,6,8,10,12,14,16,18,20,22,24,26,28,30,32,34,36,38,40,42,44,46,48,50,52,54,56,58,60,62,-1,-1,-1,-1,-1,-1,-1,-1,-1,-1,-1,-1,-1,-1,-1,-1,-1,-1,-1,-1,-1,-1,-1,-1,-1,-1,-1,-1,-1,-1,-1,-1],"split_conditions":[2.0307243E0,7.9971015E-1,1.4E1,1.5E1,6.6239685E-1,7.839264E-1,5.1980797E-2,2.0718437E-1,1.36E2,9.102535E-1,1.3E1,8.99E2,9.84E2,2.4924645E0,8.4345675E-1,1.2685437E0,2.3283064E-10,-4.3108016E-2,-1.1544904E-1,2.417991E4,1.916809E4,9.0421426E-1,2.196728E4,1.7615734E-1,9.25962E0,3E0,1.47342E4,2.1E1,7.0774674E0,8.44E2,7.6054983E0,3.98994E-2,2.7415583E-2,2.5718058E-2,1.2085945E-2,3.614622E-2,1.7055731E-2,1.06358295E-2,-1.4050047E-2,6.555715E-3,3.0261476E-2,-2.1441678E-2,5.834515E-4,1.2680741E-3,-1.4642027E-2,-4.7950204E-2,-1.4982029E-2,1.8814726E-2,-2.3960632E-3,-1.4127723E-2,-6.447484E-2,-4.2481553E-2,-1.8595066E-2,-1.0232591E-1,-5.038897E-2,-1.0716397E-2,1.4810378E-2,-2.7608788E-2,-5.3500343E-2,-3.2374572E-2,-5.789076E-2,-6.610712E-2,-1.0005718E-1],"split_indices":[3,0,6,6,3,0,0,0,8,0,6,8,8,4,0,3,4,0,0,9,9,0,9,0,3,6,9,6,3,8,3,0,0,0,0,0,0,0,0,0,0,0,0,0,0,0,0,0,0,0,0,0,0,0,0,0,0,0,0,0,0,0,0],"split_type":[0,0,0,0,0,0,0,0,0,0,0,0,0,0,0,0,0,0,0,0,0,0,0,0,0,0,0,0,0,0,0,0,0,0,0,0,0,0,0,0,0,0,0,0,0,0,0,0,0,0,0,0,0,0,0,0,0,0,0,0,0,0,0],"sum_hessian":[3.4676668E4,2.1218596E4,1.345807E4,1.706253E4,4.156068E3,4.5676914E3,8.89038E3,1.1926839E4,5.13569E3,1.9387876E3,2.2172803E3,3.4810671E3,1.0866241E3,3.8940974E3,4.996282E3,7.2653438E3,4.661495E3,2.500862E3,2.6348276E3,9.152247E2,1.02356287E3,1.2600132E3,9.57267E2,2.5400137E3,9.4105334E2,8.590809E2,2.2754323E2,1.5015293E3,2.3925679E3,3.424596E3,1.5716863E3,5.8371787E3,1.4281649E3,2.9225618E3,1.7389335E3,1.1866702E3,1.3141919E3,1.2367396E3,1.3980879E3,6.603406E2,2.5488408E2,4.167946E2,6.067683E2,4.6755554E2,7.9245764E2,6.1976917E2,3.374978E2,1.5576755E3,9.823382E2,7.953742E2,1.4567918E2,2.7755283E2,5.815281E2,4.927646E1,1.7826677E2,1.2510092E3,2.5052023E2,1.8171781E3,5.753899E2,1.847054E3,1.5775419E3,1.3730685E3,1.986178E2],"tree_param":{"num_deleted":"0","num_feature":"10","num_nodes":"63","size_leaf_vector":"1"}},{"base_weights":[2.947646E-3,3.3245188E-1,-5.712398E-1,5.0125235E-1,-1.3399218E-1,-3.2594988E-1,-8.7216175E-1,6.6472316E-1,2.9998404E-1,6.5415606E-2,-3.676842E-1,-7.452577E-2,-6.041281E-1,-5.813076E-1,-1.0495238E0,7.9748297E-1,5.228635E-1,4.8374403E-1,-7.7255727E-3,2.2415724E-1,-2.0498824E-1,-7.7460456E-1,-2.58063E-1,2.9762673E-1,-3.0723166E-1,-3.301518E-1,-7.862043E-1,-3.8743585E-1,-8.0238146E-1,-9.633994E-1,-1.5018108E0,4.3374326E-2,3.6029804E-2,2.9585546E-2,1.4982131E-2,3.1385686E-2,1.35399895E-2,1.5372641E-2,-6.6548586E-3,-3.0464819E-3,1.7848058E-2,9.50908E-4,-2.6741235E-2,-2.380075E-2,-5.4693747E-2,-3.4286415E-3,-2.0484706E-2,-3.3829652E-3,1.942316E-2,-7.2731213E-3,-2.5004227E-2,-3.678146E-2,-1.0757827E-2,-3.2754783E-2,-5.8094144E-2,-1.0941898E-3,-2.4252249E-2,-3.5656948E-2,-6.657507E-2,-2.9839357E-2,-5.3683218E-2,-1.20193325E-1,-6.932605E-2],"categories":[],"categories_nodes":[],"categories_segments":[],"categories_sizes":[],"default_left":[1,0,0,1,0,0,0,0,0,1,0,0,0,0,0,0,0,0,0,0,0,0,0,0,0,0,0,0,0,0,0,0,0,0,0,0,0,0,0,0,0,0,0,0,0,0,0,0,0,0,0,0,0,0,0,0,0,0,0,0,0,0,0],"id":5,"left_children":[1,3,5,7,9,11,13,15,17,19,21,23,25,27,29,31,33,35,37,39,41,43,45,47,49,51,53,55,57,59,61,-1,-1,-1,-1,-1,-1,-1,-1,-1,-1,-1,-1,-1,-1,-1,-1,-1,-1,-1,-1,-1,-1,-1,-1,-1,-1,-1,-1,-1,-1,-1,-1],"loss_changes":[6.5478916E3,1.7315178E3,9.3088525E2,5.3085913E2,2.7241602E2,4.8637305E2,2.910542E2,1.669414E2,4.0941754E2,1.3553702E2,1.19654236E2,3.1676944E2,1.6418567E2,9.155621E1,1.3410571E2,2.3497803E1,6.59198E1,1.3863953E2,1.0713316E2,7.535558E1,8.633679E1,5.331305E1,6.0948883E1,4.6753418E1,7.005553E1,6.1308777E1,9.610425E1,4.1001465E1,4.5461426E1,1.1837598E2,5.1469604E1,0E0,0E0,0E0,0E0,0E0,0E0,0E0,0E0,0E0,0E0,0E0,0E0,0E0,0E0,0E0,0E0,0E0,0E0,0E0,0E0,0E0,0E0,0E0,0E0,0E0,0E0,0E0,0E0,0E0,0E0,0E0,0E0],"parents":[2147483647,0,0,1,1,2,2,3,3,4,4,5,5,6,6,7,7,8,8,9,9,10,10,11,11,12,12,13,13,14,14,15,15,16,16,17,17,18,18,19,19,20,20,21,21,22,22,23,23,24,24,25,25,26,26,27,27,28,28,29,29,30,30],"right_children":[2,4,6,8,10,12,14,16,18,20,22,24,26,28,30,32,34,36,38,40,42,44,46,48,50,52,54,56,58,60,62,-1,-1,-1,-1,-1,-1,-1,-1,-1,-1,-1,-1,-1,-1,-1,-1,-1,-1,-1,-1,-1,-1,-1,-1,-1,-1,-1,-1,-1,-1,-1,-1],"split_conditions":[2.2325191E0,7.007892E-1,4.2213697E0,7.148898E-1,8.817284E-1,3.23648E-1,-1.2751696E-1,-4.4864174E-2,1.5E1,1.0136405E0,1.659156E4,1.4E1,1.4E1,6.263231E0,9.25962E0,6.4E1,1.6E1,3.5071958E-2,-5.7760674E-1,1.812018E4,1.4E1,1.3E1,7.3299706E-1,2E0,1.1003515E-2,2E0,9.045617E-1,1.2E1,1.2139886E1,1.4E1,1.030507E4,4.3374326E-2,3.6029804E-2,2.9585546E-2,1.4982131E-2,3.1385686E-2,1.35399895E-2,1.5372641E-2,-6.6548586E-3,-3.0464819E-3,1.7848058E-2,9.50908E-4,-2.6741235E-2,-2.380075E-2,-5.4693747E-2,-3.4286415E-3,-2.0484706E-2,-3.3829652E-3,1.942316E-2,-7.2731213E-3,-2.5004227E-2,-3.678146E-2,-1.0757827E-2,-3.2754783E-2,-5.8094144E-2,-1.0941898E-3,-2.4252249E-2,-3.5656948E-2,-6.657507E-2,-2.9839357E-2,-5.3683218E-2,-1.20193325E-1,-6.932605E-2],"split_indices":[3,1,3,3,1,1,1,1,6,3,9,6,6,3,3,8,6,1,1,9,6,6,3,6,5,6,1,6,3,6,9,0,0,0,0,0,0,0,0,0,0,0,0,0,0,0,0,0,0,0,0,0,0,0,0,0,0,0,0,0,0,0,0],"split_type":[0,0,0,0,0,0,0,0,0,0,0,0,0,0,0,0,0,0,0,0,0,0,0,0,0,0,0,0,0,0,0,0,0,0,0,0,0,0,0,0,0,0,0,0,0,0,0,0,0,0,0,0,0,0,0,0,0,0,0,0,0,0,0],"sum_hessian":[3.4604812E4,2.1987734E4,1.2617079E4,1.614493E4,5.8428047E3,6.953364E3,5.6637153E3,8.906466E3,7.2384644E3,3.1534377E3,2.6893667E3,3.6536465E3,3.299717E3,2.1486768E3,3.5150383E3,4.59602E3,4.310446E3,4.5312935E3,2.707171E3,1.9871914E3,1.1662465E3,5.681665E2,2.1212002E3,1.4054451E3,2.2482014E3,1.3196384E3,1.9800787E3,1.1477007E3,1.00097614E3,2.9580308E3,5.5700745E2,2.3949324E3,2.2010876E3,3.2918486E3,1.01859705E3,2.701164E3,1.8301293E3,7.6957935E2,1.9375916E3,6.3186487E2,1.3553265E3,6.9567065E2,4.7057578E2,2.961663E2,2.7200018E2,9.4418146E2,1.1770188E3,2.79995E2,1.1254501E3,1.2245393E3,1.0236621E3,2.8918115E2,1.0304573E3,1.4718893E3,5.081894E2,2.4238867E2,9.053121E2,8.605324E2,1.4044368E2,6.8692957E2,2.2711013E3,5.8623287E1,4.9838416E2],"tree_param":{"num_deleted":"0","num_feature":"10","num_nodes":"63","size_leaf_vector":"1"}},{"base_weights":[2.6045758E-3,3.083036E-1,-5.4550207E-1,5.237792E-1,-4.4062126E-2,-1.7428961E-1,-7.130028E-1,6.536854E-1,2.5351292E-1,1.2048219E-1,-3.856448E-1,1.1915213E-1,-4.4128585E-1,-4.2464414E-1,-9.1756445E-1,7.516052E-1,5.103739E-1,5.992714E-1,6.811113E-2,3.1570336E-1,-9.782041E-2,-2.402067E-1,-6.347699E-1,-6.5805936E-1,2.0290394E-1,-3.4904832E-1,-1.2074265E0,-7.23644E-2,-6.059376E-1,-7.4766177E-1,-1.2336729E0,4.2409636E-2,3.2404166E-2,3.0754847E-2,1.6820071E-2,7.0166267E-3,3.263345E-2,-3.621721E-3,1.9578302E-2,5.095132E-3,2.1610474E-2,2.8022004E-3,-1.9641967E-2,-2.5772834E-2,-8.020245E-3,-4.012699E-2,-1.5034339E-3,-1.801684E-2,-6.2664144E-2,1.6988402E-2,-5.1389206E-3,-1.052733E-2,-3.4832027E-2,-4.1079067E-2,-7.9713605E-2,5.1170345E-3,-1.340195E-2,-2.1701954E-2,-4.2821687E-2,-4.9088452E-2,-3.005634E-2,-5.666085E-2,-8.099641E-2],"categories":[],"categories_nodes":[],"categories_segments":[],"categories_sizes":[],"default_left":[0,0,0,0,0,0,0,0,0,0,0,0,0,0,0,0,0,0,0,0,0,0,0,0,0,0,0,0,0,0,0,0,0,0,0,0,0,0,0,0,0,0,0,0,0,0,0,0,0,0,0,0,0,0,0,0,0,0,0,0,0,0,0],"id":6,"left_children":[1,3,5,7,9,11,13,15,17,19,21,23,25,27,29,31,33,35,37,39,41,43,45,47,49,51,53,55,57,59,61,-1,-1,-1,-1,-1,-1,-1,-1,-1,-1,-1,-1,-1,-1,-1,-1,-1,-1,-1,-1,-1,-1,-1,-1,-1,-1,-1,-1,-1,-1,-1,-1],"loss_changes":[5.7990317E3,1.6869641E3,7.7024805E2,4.8372485E2,4.7405884E2,3.0218097E2,5.0286182E2,1.298833E2,2.870362E2,2.4267072E2,9.9043915E1,1.19933426E2,1.4184625E2,2.2644812E2,2.6632275E2,5.4162354E1,6.855206E1,3.8122803E1,1.3270064E2,7.4781494E1,1.2210649E2,3.7933716E1,1.02365906E2,3.0871628E1,6.9564766E1,8.6604095E1,2.9644745E1,4.1332317E1,1.00085144E2,1.10401855E2,6.393799E1,0E0,0E0,0E0,0E0,0E0,0E0,0E0,0E0,0E0,0E0,0E0,0E0,0E0,0E0,0E0,0E0,0E0,0E0,0E0,0E0,0E0,0E0,0E0,0E0,0E0,0E0,0E0,0E0,0E0,0E0,0E0,0E0],"parents":[2147483647,0,0,1,1,2,2,3,3,4,4,5,5,6,6,7,7,8,8,9,9,10,10,11,11,12,12,13,13,14,14,15,15,16,16,17,17,18,18,19,19,20,20,21,21,22,22,23,23,24,24,25,25,26,26,27,27,28,28,29,29,30,30],"right_children":[2,4,6,8,10,12,14,16,18,20,22,24,26,28,30,32,34,36,38,40,42,44,46,48,50,52,54,56,58,60,62,-1,-1,-1,-1,-1,-1,-1,-1,-1,-1,-1,-1,-1,-1,-1,-1,-1,-1,-1,-1,-1,-1,-1,-1,-1,-1,-1,-1,-1,-1,-1,-1],"split_conditions":[4.22E2,5.2956235E-1,1.4E1,1.5E1,9.102535E-1,2.0718437E-1,4.683649E-3,-8.317478E-2,1E2,2.3283064E-10,1.5E1,1.332704E4,1.714E3,2.438203E0,1.1090784E-2,1.36E2,1.58E2,1.451043E4,2.1E1,1.853007E4,1.5E1,3E0,2.42749E4,1.714E3,8.99E2,8.757681E-1,6.6485014E0,-5.232442E-1,1.1064193E-2,1.6E1,9.449641E-1,4.2409636E-2,3.2404166E-2,3.0754847E-2,1.6820071E-2,7.0166267E-3,3.263345E-2,-3.621721E-3,1.9578302E-2,5.095132E-3,2.1610474E-2,2.8022004E-3,-1.9641967E-2,-2.5772834E-2,-8.020245E-3,-4.012699E-2,-1.5034339E-3,-1.801684E-2,-6.2664144E-2,1.6988402E-2,-5.1389206E-3,-1.052733E-2,-3.4832027E-2,-4.1079067E-2,-7.9713605E-2,5.1170345E-3,-1.340195E-2,-2.1701954E-2,-4.2821687E-2,-4.9088452E-2,-3.005634E-2,-5.666085E-2,-8.099641E-2],"split_indices":[8,1,6,6,0,0,0,0,8,4,6,9,8,4,5,8,8,9,6,9,6,6,9,8,8,1,4,0,5,6,0,0,0,0,0,0,0,0,0,0,0,0,0,0,0,0,0,0,0,0,0,0,0,0,0,0,0,0,0,0,0,0,0],"split_type":[0,0,0,0,0,0,0,0,0,0,0,0,0,0,0,0,0,0,0,0,0,0,0,0,0,0,0,0,0,0,0,0,0,0,0,0,0,0,0,0,0,0,0,0,0,0,0,0,0,0,0,0,0,0,0,0,0,0,0,0,0,0,0],"sum_hessian":[3.460558E4,2.221586E4,1.2389719E4,1.3785126E4,8.430733E3,3.8535732E3,8.5361455E3,9.308206E3,4.47692E3,5.6907354E3,2.7399983E3,1.8363945E3,2.0171786E3,3.5450483E3,4.9910967E3,5.5248076E3,3.7833987E3,1.561113E3,2.9158066E3,3.0037148E3,2.6870203E3,1.7325007E3,1.0074975E3,1.773046E2,1.6590898E3,1.8030199E3,2.1415869E2,1.2054604E3,2.339588E3,3.2506567E3,1.7404401E3,2.850687E3,2.6741206E3,2.3585776E3,1.4248212E3,1.6346112E2,1.397652E3,2.033692E3,8.821146E2,1.0607954E3,1.9429196E3,1.7670511E3,9.1996924E2,3.8694467E2,1.345556E3,7.8817096E2,2.1932657E2,1.20328636E2,5.6975967E1,1.1458375E3,5.132523E2,1.2915857E3,5.114343E2,1.1034579E2,1.03812904E2,6.373586E2,5.681019E2,1.3907059E3,9.4888196E2,1.2470098E3,2.0036469E3,1.3874618E3,3.5297833E2],"tree_param":{"num_deleted":"0","num_feature":"10","num_nodes":"63","size_leaf_vector":"1"}},{"base_weights":[4.5098565E-3,3.723074E-1,-4.1489664E-1,6.2008816E-1,9.226817E-2,-6.4399466E-2,-6.010586E-1,7.14204E-1,4.0083742E-1,2.224116E-1,-2.6435646E-1,2.2343148E-1,-3.0059654E-1,-4.9535266E-1,-1.0341475E0,8.0646193E-1,6.227743E-1,6.5055573E-1,1.9764157E-1,3.628759E-1,1.3390948E-2,-6.224163E-1,-1.8789059E-1,3.7532797E-1,-2.5423965E-1,-1.0106623E-1,-5.542573E-1,-2.846318E-1,-7.1012694E-1,-8.607352E-1,-1.2436719E0,4.245499E-2,3.3204548E-2,3.9030086E-2,2.6029611E-2,3.7152033E-2,2.241163E-2,2.172888E-2,1.8724051E-3,9.147479E-3,2.333833E-2,7.2534233E-3,-1.3461138E-2,-2.274396E-2,-4.6746172E-2,-2.4125867E-2,-4.965785E-3,-3.410299E-3,2.1208897E-2,-6.8202987E-3,-5.817693E-2,4.656029E-3,-1.7571812E-2,-5.1973708E-2,-2.2736542E-2,-2.059461E-3,-2.2275066E-2,-2.8920704E-2,-4.8771434E-2,-3.151641E-2,-5.400328E-2,-6.583672E-2,-4.2131197E-2],"categories":[],"categories_nodes":[],"categories_segments":[],"categories_sizes":[],"default_left":[1,0,0,0,0,0,0,0,1,0,0,0,0,0,0,0,0,0,0,0,0,0,0,0,0,0,0,0,0,0,0,0,0,0,0,0,0,0,0,0,0,0,0,0,0,0,0,0,0,0,0,0,0,0,0,0,0,0,0,0,0,0,0],"id":7,"left_children":[1,3,5,7,9,11,13,15,17,19,21,23,25,27,29,31,33,35,37,39,41,43,45,47,49,51,53,55,57,59,61,-1,-1,-1,-1,-1,-1,-1,-1,-1,-1,-1,-1,-1,-1,-1,-1,-1,-1,-1,-1,-1,-1,-1,-1,-1,-1,-1,-1,-1,-1,-1,-1],"loss_changes":[5.332803E3,1.2779294E3,1.0538457E3,2.0106885E2,4.0153162E2,3.8121024E2,4.8190796E2,5.6644775E1,1.4889374E2,1.8606094E2,6.31026E1,1.8358832E2,1.5575882E2,3.8352344E2,7.298877E1,1.9481445E1,5.4687256E1,2.3993774E1,6.15901E1,7.0680145E1,9.494592E1,2.0417618E1,4.972441E1,4.1627655E1,6.515318E1,8.3990685E1,6.451245E1,1.6778812E2,1.4562964E2,5.6141052E1,2.5086792E1,0E0,0E0,0E0,0E0,0E0,0E0,0E0,0E0,0E0,0E0,0E0,0E0,0E0,0E0,0E0,0E0,0E0,0E0,0E0,0E0,0E0,0E0,0E0,0E0,0E0,0E0,0E0,0E0,0E0,0E0,0E0,0E0],"parents":[2147483647,0,0,1,1,2,2,3,3,4,4,5,5,6,6,7,7,8,8,9,9,10,10,11,11,12,12,13,13,14,14,15,15,16,16,17,17,18,18,19,19,20,20,21,21,22,22,23,23,24,24,25,25,26,26,27,27,28,28,29,29,30,30],"right_children":[2,4,6,8,10,12,14,16,18,20,22,24,26,28,30,32,34,36,38,40,42,44,46,48,50,52,54,56,58,60,62,-1,-1,-1,-1,-1,-1,-1,-1,-1,-1,-1,-1,-1,-1,-1,-1,-1,-1,-1,-1,-1,-1,-1,-1,-1,-1,-1,-1,-1,-1,-1,-1],"split_conditions":[1.7132249E0,3.551015E-1,1.4E1,1.5E1,9.0421426E-1,1.7615734E-1,8.264372E-1,-3.9337227E-1,3.9714518E-1,2.3283064E-10,1.619383E4,8.99E2,5.57E2,7.65E2,1.1035098E-2,2.14E2,6.5E1,-5.2948248E-2,-5.6916946E-1,1.865726E4,1.5E1,1.1049364E-2,-1.507E1,1E0,1.0772543E1,8.049773E-1,1.451043E4,-2.2652511E-1,1.1111488E-2,6.75E2,2.1E1,4.245499E-2,3.3204548E-2,3.9030086E-2,2.6029611E-2,3.7152033E-2,2.241163E-2,2.172888E-2,1.8724051E-3,9.147479E-3,2.333833E-2,7.2534233E-3,-1.3461138E-2,-2.274396E-2,-4.6746172E-2,-2.4125867E-2,-4.965785E-3,-3.410299E-3,2.1208897E-2,-6.8202987E-3,-5.817693E-2,4.656029E-3,-1.7571812E-2,-5.1973708E-2,-2.2736542E-2,-2.059461E-3,-2.2275066E-2,-2.8920704E-2,-4.8771434E-2,-3.151641E-2,-5.400328E-2,-6.583672E-2,-4.2131197E-2],"split_indices":[3,0,6,6,0,0,0,0,3,4,9,8,8,8,5,8,8,0,0,9,6,5,7,6,3,0,9,0,5,8,6,0,0,0,0,0,0,0,0,0,0,0,0,0,0,0,0,0,0,0,0,0,0,0,0,0,0,0,0,0,0,0,0],"split_type":[0,0,0,0,0,0,0,0,0,0,0,0,0,0,0,0,0,0,0,0,0,0,0,0,0,0,0,0,0,0,0,0,0,0,0,0,0,0,0,0,0,0,0,0,0,0,0,0,0,0,0,0,0,0,0,0,0,0,0,0,0,0,0],"sum_hessian":[3.4566973E4,1.8416709E4,1.6150265E4,9.769847E3,8.646861E3,5.603308E3,1.0546957E4,6.832433E3,2.937414E3,6.335568E3,2.3112935E3,2.5256482E3,3.0776597E3,8.481199E3,2.0657573E3,3.3930286E3,3.4394045E3,1.315869E3,1.6215452E3,3.7883083E3,2.5472595E3,4.0421814E2,1.9070752E3,1.9166074E3,6.090409E2,1.7241976E3,1.353462E3,4.2833447E3,4.1978545E3,1.135872E3,9.298855E2,2.6034172E3,7.896113E2,1.3464457E3,2.0929587E3,8.993962E2,4.1647275E2,6.527144E2,9.688308E2,1.3887245E3,2.399584E3,1.7383076E3,8.08952E2,2.6634174E2,1.378764E2,4.3875363E2,1.4683215E3,1.900702E2,1.7265371E3,5.4120734E2,6.783361E1,9.7175854E2,7.524391E2,2.2715164E2,1.1263104E3,1.7052759E3,2.5780686E3,2.809432E3,1.3884227E3,5.5772675E2,5.781452E2,7.8272327E2,1.4716223E2],"tree_param":{"num_deleted":"0","num_feature":"10","num_nodes":"63","size_leaf_vector":"1"}},{"base_weights":[2.6131955E-3,3.2186913E-1,-4.3781528E-1,5.069671E-1,-4.370977E-2,-2.1868728E-1,-6.632715E-1,6.2354183E-1,2.548582E-1,9.6803E-2,-3.2609844E-1,-1.08023144E-1,-6.793016E-1,-3.7338683E-1,-7.9503345E-1,7.4811316E-1,4.9248272E-1,5.4478604E-1,6.660792E-2,2.8994212E-1,-6.36124E-2,-1.9455634E-1,-5.3722584E-1,1.5814294E-1,-2.8666246E-1,-4.5885903E-1,-8.341525E-1,-8.840436E-2,-5.8552897E-1,-7.0089036E-1,-1.0437698E0,4.0504918E-2,2.949357E-2,2.9454766E-2,1.7713755E-2,3.563042E-2,1.7540477E-2,-3.147849E-3,1.8413492E-2,3.7515297E-4,1.9777836E-2,4.3476312E-3,-1.741219E-2,-6.4411066E-3,-2.4192983E-2,-3.8138535E-2,-1.0558139E-2,1.8335553E-2,-1.7746075E-3,7.6473393E-3,-1.8437587E-2,-3.9974343E-2,-1.5021659E-2,-4.4151243E-2,-1.5949352E-2,1.434427E-2,-9.63297E-3,-2.1736024E-2,-4.398361E-2,-2.1514343E-2,-3.937769E-2,-4.4094604E-2,-6.36429E-2],"categories":[],"categories_nodes":[],"categories_segments":[],"categories_sizes":[],"default_left":[1,0,0,0,0,0,0,0,1,0,0,0,0,0,0,1,0,0,0,0,0,0,0,0,0,0,0,0,0,0,0,0,0,0,0,0,0,0,0,0,0,0,0,0,0,0,0,0,0,0,0,0,0,0,0,0,0,0,0,0,0,0,0],"id":8,"left_children":[1,3,5,7,9,11,13,15,17,19,21,23,25,27,29,31,33,35,37,39,41,43,45,47,49,51,53,55,57,59,61,-1,-1,-1,-1,-1,-1,-1,-1,-1,-1,-1,-1,-1,-1,-1,-1,-1,-1,-1,-1,-1,-1,-1,-1,-1,-1,-1,-1,-1,-1,-1,-1],"loss_changes":[4.859308E3,1.3558108E3,7.1721655E2,3.905984E2,2.6735684E2,3.754263E2,2.727854E2,1.4773535E2,2.2965677E2,1.3944849E2,6.1963776E1,2.826718E2,4.794275E1,1.3534311E2,1.1372266E2,4.473877E1,5.8834717E1,5.3434082E1,9.988224E1,6.0905304E1,1.0547328E2,2.6165375E1,6.2794037E1,9.647264E1,1.2847476E2,3.1531372E1,2.0477295E1,3.760935E1,5.6191284E1,8.314807E1,4.768811E1,0E0,0E0,0E0,0E0,0E0,0E0,0E0,0E0,0E0,0E0,0E0,0E0,0E0,0E0,0E0,0E0,0E0,0E0,0E0,0E0,0E0,0E0,0E0,0E0,0E0,0E0,0E0,0E0,0E0,0E0,0E0,0E0],"parents":[2147483647,0,0,1,1,2,2,3,3,4,4,5,5,6,6,7,7,8,8,9,9,10,10,11,11,12,12,13,13,14,14,15,15,16,16,17,17,18,18,19,19,20,20,21,21,22,22,23,23,24,24,25,25,26,26,27,27,28,28,29,29,30,30],"right_children":[2,4,6,8,10,12,14,16,18,20,22,24,26,28,30,32,34,36,38,40,42,44,46,48,50,52,54,56,58,60,62,-1,-1,-1,-1,-1,-1,-1,-1,-1,-1,-1,-1,-1,-1,-1,-1,-1,-1,-1,-1,-1,-1,-1,-1,-1,-1,-1,-1,-1,-1,-1,-1],"split_conditions":[2.0307243E0,6.147953E-1,3.8455172E0,1.5E1,9.045617E-1,8.5510963E-1,-2.4902521E-1,-1.4745988E-1,4.2027378E-1,4.9937657E-1,1.4E1,1.4E1,1.4E1,4.0240836E0,7.3310866E0,1.0586996E0,5.6017333E-1,-5.2948248E-2,2.1E1,1.762839E4,1.5E1,1.8999659E0,2.145807E4,-4.9318415E-3,-7.3352E-1,3E0,2.647339E4,2.764864E-10,7.6054983E0,1.4E1,6.6931885E-1,4.0504918E-2,2.949357E-2,2.9454766E-2,1.7713755E-2,3.563042E-2,1.7540477E-2,-3.147849E-3,1.8413492E-2,3.7515297E-4,1.9777836E-2,4.3476312E-3,-1.741219E-2,-6.4411066E-3,-2.4192983E-2,-3.8138535E-2,-1.0558139E-2,1.8335553E-2,-1.7746075E-3,7.6473393E-3,-1.8437587E-2,-3.9974343E-2,-1.5021659E-2,-4.4151243E-2,-1.5949352E-2,1.434427E-2,-9.63297E-3,-2.1736024E-2,-4.398361E-2,-2.1514343E-2,-3.937769E-2,-4.4094604E-2,-6.36429E-2],"split_indices":[3,1,3,6,1,0,0,0,3,3,6,6,6,4,3,3,3,0,6,9,6,4,9,0,0,6,9,4,3,6,0,0,0,0,0,0,0,0,0,0,0,0,0,0,0,0,0,0,0,0,0,0,0,0,0,0,0,0,0,0,0,0,0],"split_type":[0,0,0,0,0,0,0,0,0,0,0,0,0,0,0,0,0,0,0,0,0,0,0,0,0,0,0,0,0,0,0,0,0,0,0,0,0,0,0,0,0,0,0,0,0,0,0,0,0,0,0,0,0,0,0,0,0,0,0,0,0,0,0],"sum_hessian":[3.4554906E4,2.0033584E4,1.4521322E4,1.3299219E4,6.7343657E3,7.3660073E3,7.1553145E3,9.092103E3,4.2071167E3,4.4976904E3,2.2366753E3,5.941106E3,1.4249015E3,2.2383882E3,4.9169263E3,4.6566E3,4.435502E3,1.6547762E3,2.5523403E3,2.0399675E3,2.4577227E3,1.3804406E3,8.5623486E2,2.3861133E3,3.5549927E3,5.912031E2,8.336984E2,9.5641516E2,1.2819731E3,3.5724436E3,1.3444827E3,3.3400305E3,1.3165698E3,2.6067537E3,1.8287484E3,8.8433246E2,7.704438E2,1.7865802E3,7.657602E2,5.557906E2,1.484177E3,1.6083322E3,8.4939056E2,1.1272112E3,2.532293E2,5.0454892E2,3.5168594E2,1.1479E3,1.2382131E3,5.591066E2,2.995886E3,1.8510982E2,4.060933E2,7.601564E2,7.354204E1,2.0716693E2,7.492482E2,8.5074725E2,4.3122586E2,8.694736E2,2.70297E3,7.9348846E2,5.5099426E2],"tree_param":{"num_deleted":"0","num_feature":"10","num_nodes":"63","size_leaf_vector":"1"}},{"base_weights":[4.5579413E-4,3.4448108E-1,-3.678518E-1,5.8454114E-1,8.3827205E-2,-1.8355948E-1,-6.3067997E-1,6.954294E-1,4.1249964E-1,2.0819438E-1,-2.5828275E-1,8.8876046E-2,-3.529586E-1,-3.9977404E-1,-7.679079E-1,7.9468364E-1,5.9344596E-1,5.383502E-1,2.4471907E-1,-1.994393E-1,2.6946765E-1,-4.0700507E-1,-1.744346E-2,3.1995675E-1,-2.6444813E-2,-2.3506038E-1,-6.107656E-1,-1.12602174E-1,-4.9978143E-1,-6.866939E-1,-1.027829E0,4.2369343E-2,3.5853364E-2,1.8616662E-3,3.1009773E-2,3.0518422E-2,1.8012341E-2,-5.332601E-3,1.5889822E-2,-2.2556176E-2,-2.4455858E-3,2.7077338E-2,9.551262E-3,-3.0638639E-2,-1.3613529E-2,8.910152E-3,-7.929443E-3,2.1211177E-2,7.062727E-4,3.9840005E-3,-1.2511382E-2,-2.1588694E-2,-2.0071282E-3,-4.2008992E-2,-2.426047E-2,-1.0911248E-2,4.4118357E-3,-2.1929203E-2,-4.5195945E-2,-3.0433832E-2,-4.895618E-2,-4.77618E-2,-7.454347E-2],"categories":[],"categories_nodes":[],"categories_segments":[],"categories_sizes":[],"default_left":[1,0,0,1,0,0,0,0,0,0,0,0,0,0,0,0,0,0,0,0,0,0,0,0,0,0,0,0,0,0,0,0,0,0,0,0,0,0,0,0,0,0,0,0,0,0,0,0,0,0,0,0,0,0,0,0,0,0,0,0,0,0,0],"id":9,"left_children":[1,3,5,7,9,11,13,15,17,19,21,23,25,27,29,31,33,35,37,39,41,43,45,47,49,51,53,55,57,59,61,-1,-1,-1,-1,-1,-1,-1,-1,-1,-1,-1,-1,-1,-1,-1,-1,-1,-1,-1,-1,-1,-1,-1,-1,-1,-1,-1,-1,-1,-1,-1,-1],"loss_changes":[4.3770454E3,1.1175156E3,8.078711E2,1.7679834E2,3.6454898E2,4.5278784E2,2.1725537E2,5.625415E1,7.678357E1,1.5703867E2,8.181439E1,1.00286E2,1.8357587E2,7.361597E1,8.958008E1,1.0474609E1,4.1537415E1,2.6282043E1,4.031894E1,3.1104015E1,1.1638422E2,3.882077E1,2.419887E1,3.993689E1,5.9694286E1,1.5924696E2,5.3826477E1,1.41598015E1,4.62854E1,7.387549E1,3.151062E1,0E0,0E0,0E0,0E0,0E0,0E0,0E0,0E0,0E0,0E0,0E0,0E0,0E0,0E0,0E0,0E0,0E0,0E0,0E0,0E0,0E0,0E0,0E0,0E0,0E0,0E0,0E0,0E0,0E0,0E0,0E0,0E0],"parents":[2147483647,0,0,1,1,2,2,3,3,4,4,5,5,6,6,7,7,8,8,9,9,10,10,11,11,12,12,13,13,14,14,15,15,16,16,17,17,18,18,19,19,20,20,21,21,22,22,23,23,24,24,25,25,26,26,27,27,28,28,29,29,30,30],"right_children":[2,4,6,8,10,12,14,16,18,20,22,24,26,28,30,32,34,36,38,40,42,44,46,48,50,52,54,56,58,60,62,-1,-1,-1,-1,-1,-1,-1,-1,-1,-1,-1,-1,-1,-1,-1,-1,-1,-1,-1,-1,-1,-1,-1,-1,-1,-1,-1,-1,-1,-1,-1,-1],"split_conditions":[1.7132249E0,3.551015E-1,4.027556E0,6.795147E-1,9.102535E-1,-4.9318415E-3,-7.280336E-2,-3.2800087E-1,-3.2800087E-1,1.57224E4,2.127565E4,-7.3352E-1,8.613798E-1,8.61E2,7.927512E0,7.7E1,1.418297E4,2.89E2,1.562442E4,-2.28E0,4.4E1,1.357414E-1,9.466679E-1,6.52E2,1.107543E-2,8.367E1,6.91E0,2.4365E2,1.0772543E1,9.2850834E-1,1.4663756E1,4.2369343E-2,3.5853364E-2,1.8616662E-3,3.1009773E-2,3.0518422E-2,1.8012341E-2,-5.332601E-3,1.5889822E-2,-2.2556176E-2,-2.4455858E-3,2.7077338E-2,9.551262E-3,-3.0638639E-2,-1.3613529E-2,8.910152E-3,-7.929443E-3,2.1211177E-2,7.062727E-4,3.9840005E-3,-1.2511382E-2,-2.1588694E-2,-2.0071282E-3,-4.2008992E-2,-2.426047E-2,-1.0911248E-2,4.4118357E-3,-2.1929203E-2,-4.5195945E-2,-3.0433832E-2,-4.895618E-2,-4.77618E-2,-7.454347E-2],"split_indices":[3,0,3,3,0,0,0,0,0,9,9,0,0,8,3,8,9,8,9,7,8,2,1,8,5,7,7,7,3,0,3,0,0,0,0,0,0,0,0,0,0,0,0,0,0,0,0,0,0,0,0,0,0,0,0,0,0,0,0,0,0,0,0],"split_type":[0,0,0,0,0,0,0,0,0,0,0,0,0,0,0,0,0,0,0,0,0,0,0,0,0,0,0,0,0,0,0,0,0,0,0,0,0,0,0,0,0,0,0,0,0,0,0,0,0,0,0,0,0,0,0,0,0,0,0,0,0,0,0],"sum_hessian":[3.454059E4,1.7859078E4,1.668151E4,9.295508E3,8.56357E3,9.807789E3,6.873721E3,5.6486323E3,3.6468757E3,6.281016E3,2.282554E3,3.7606648E3,6.0471245E3,2.565211E3,4.3085103E3,2.8557349E3,2.7928975E3,2.0812974E3,1.5655784E3,8.2016724E2,5.460849E3,1.4102938E3,8.7226013E2,1.2507848E3,2.50988E3,4.1521294E3,1.8949951E3,6.636854E2,1.9015255E3,3.288333E3,1.02017725E3,1.6890198E3,1.1667151E3,1.2837277E2,2.6645247E3,1.4785671E3,6.0273035E2,2.693877E2,1.2961906E3,3.054525E2,5.147147E2,1.2194288E3,4.2414204E3,5.552362E2,8.550576E2,3.653336E2,5.069265E2,9.321973E2,3.1858743E2,1.7033743E3,8.065056E2,2.0653362E3,2.0867935E3,6.6625006E2,1.2287451E3,4.3483115E2,2.2885428E2,1.6550729E3,2.4645264E2,2.600665E3,6.876681E2,8.872109E2,1.3296635E2],"tree_param":{"num_deleted":"0","num_feature":"10","num_nodes":"63","size_leaf_vector":"1"}},{"base_weights":[5.6953845E-3,3.5769737E-1,-3.1907755E-1,5.3039706E-1,1.9290294E-2,-1.1791095E-1,-5.344247E-1,6.641723E-1,3.7979028E-1,1.886479E-1,-2.0212728E-1,1.1361519E-1,-3.2918587E-1,-4.3694282E-1,-8.4341276E-1,7.790229E-1,5.370293E-1,4.8642856E-1,1.5676714E-1,3.3069137E-1,9.839395E-3,-2.888556E-1,1.2400768E-1,3.6501828E-1,6.080674E-3,-5.188228E-1,-1.815818E-1,-2.4456903E-1,-5.963395E-1,-7.2083503E-1,-1.036831E0,1.8010288E-2,3.9820235E-2,3.1562414E-2,2.0525021E-2,1.8160498E-2,2.8694859E-2,-1.2481094E-2,1.2324085E-2,-1.2195972E-2,1.8497093E-2,-1.4031673E-2,7.8054033E-3,-1.1040713E-2,-2.9036662E-2,-4.363928E-2,7.6084076E-3,2.3744289E-2,8.107315E-3,1.2484426E-2,-6.6942545E-3,-2.0440213E-2,-4.28477E-2,-1.7890126E-3,-2.1129584E-2,-6.0901284E-4,-1.7907806E-2,-2.5717122E-2,-4.3738574E-2,-6.854593E-2,-3.3746794E-2,-4.739772E-2,-6.589057E-2],"categories":[],"categories_nodes":[],"categories_segments":[],"categories_sizes":[],"default_left":[1,0,0,0,0,0,0,1,0,1,0,0,0,0,0,0,0,0,0,0,0,0,0,0,0,0,0,0,0,0,0,0,0,0,0,0,0,0,0,0,0,0,0,0,0,0,0,0,0,0,0,0,0,0,0,0,0,0,0,0,0,0,0],"id":10,"left_children":[1,3,5,7,9,11,13,15,17,19,21,23,25,27,29,31,33,35,37,39,41,43,45,47,49,51,53,55,57,59,61,-1,-1,-1,-1,-1,-1,-1,-1,-1,-1,-1,-1,-1,-1,-1,-1,-1,-1,-1,-1,-1,-1,-1,-1,-1,-1,-1,-1,-1,-1,-1,-1],"loss_changes":[3.9422627E3,9.67114E2,7.7686646E2,2.202456E2,2.0983192E2,4.5380725E2,2.6016992E2,8.38562E1,1.2253784E2,8.051896E1,6.866875E1,1.19684906E2,1.3558356E2,2.0174597E2,4.77063E1,2.1577515E1,3.2374146E1,3.718756E1,6.10718E1,4.0028885E1,5.980964E1,3.7801773E1,1.460527E1,2.9408829E1,1.0586705E2,7.82359E1,9.592272E1,7.8888916E1,8.133264E1,3.6246765E1,1.749054E1,0E0,0E0,0E0,0E0,0E0,0E0,0E0,0E0,0E0,0E0,0E0,0E0,0E0,0E0,0E0,0E0,0E0,0E0,0E0,0E0,0E0,0E0,0E0,0E0,0E0,0E0,0E0,0E0,0E0,0E0,0E0,0E0],"parents":[2147483647,0,0,1,1,2,2,3,3,4,4,5,5,6,6,7,7,8,8,9,9,10,10,11,11,12,12,13,13,14,14,15,15,16,16,17,17,18,18,19,19,20,20,21,21,22,22,23,23,24,24,25,25,26,26,27,27,28,28,29,29,30,30],"right_children":[2,4,6,8,10,12,14,16,18,20,22,24,26,28,30,32,34,36,38,40,42,44,46,48,50,52,54,56,58,60,62,-1,-1,-1,-1,-1,-1,-1,-1,-1,-1,-1,-1,-1,-1,-1,-1,-1,-1,-1,-1,-1,-1,-1,-1,-1,-1,-1,-1,-1,-1,-1,-1],"split_conditions":[1.5475552E0,6.2144697E-1,3.4667284E0,-8.317478E-2,8.6442965E-1,2.6609883E-1,7.686518E-1,4.2027378E-1,2.3283064E-10,5.4495335E-1,2.446606E4,-6.973574E-1,5.477E1,4.0240836E0,1.1072143E-2,1.0457052E-2,-5.690157E-1,1.4387428E-2,1.577322E4,1.487136E4,3.92E0,1.6188283E0,1.047121E-2,2.8971014E0,2.6193447E-10,9.3404114E-1,8.533712E-1,-4.141023E-1,8.73066E0,1.203613E4,7.6054983E0,1.8010288E-2,3.9820235E-2,3.1562414E-2,2.0525021E-2,1.8160498E-2,2.8694859E-2,-1.2481094E-2,1.2324085E-2,-1.2195972E-2,1.8497093E-2,-1.4031673E-2,7.8054033E-3,-1.1040713E-2,-2.9036662E-2,-4.363928E-2,7.6084076E-3,2.3744289E-2,8.107315E-3,1.2484426E-2,-6.6942545E-3,-2.0440213E-2,-4.28477E-2,-1.7890126E-3,-2.1129584E-2,-6.0901284E-4,-1.7907806E-2,-2.5717122E-2,-4.3738574E-2,-6.854593E-2,-3.3746794E-2,-4.739772E-2,-6.589057E-2],"split_indices":[3,1,3,0,1,1,0,3,4,3,9,0,7,4,5,5,1,2,9,9,7,4,5,4,4,0,1,0,3,9,3,0,0,0,0,0,0,0,0,0,0,0,0,0,0,0,0,0,0,0,0,0,0,0,0,0,0,0,0,0,0,0,0],"split_type":[0,0,0,0,0,0,0,0,0,0,0,0,0,0,0,0,0,0,0,0,0,0,0,0,0,0,0,0,0,0,0,0,0,0,0,0,0,0,0,0,0,0,0,0,0,0,0,0,0,0,0,0,0,0,0,0,0,0,0,0,0,0,0],"sum_hessian":[3.448024E4,1.654639E4,1.7933846E4,1.095472E4,5.5916704E3,9.27381E3,8.660037E3,5.7979346E3,5.156785E3,3.1684707E3,2.4232E3,4.42528E3,4.84853E3,6.586808E3,2.0732285E3,3.040836E3,2.7570989E3,3.4870793E3,1.6697058E3,1.7648192E3,1.4036514E3,1.91435E3,5.0885007E2,1.3243397E3,3.1009402E3,2.1199092E3,2.7286206E3,2.9869578E3,3.5998506E3,1.2747909E3,7.984377E2,1.2290377E2,2.9179321E3,1.5757489E3,1.1813499E3,1.4519694E3,2.03511E3,3.0130222E2,1.3684036E3,1.12176285E2,1.652643E3,4.6948022E2,9.341712E2,1.5552981E3,3.5905188E2,1.233247E1,4.9651758E2,8.5735077E2,4.6698898E2,1.130959E3,1.9699811E3,1.6028154E3,5.170937E2,1.7015477E3,1.0270729E3,9.813729E2,2.0055847E3,2.7852888E3,8.145618E2,8.026317E1,1.1945277E3,6.1321857E2,1.852191E2],"tree_param":{"num_deleted":"0","num_feature":"10","num_nodes":"63","size_leaf_vector":"1"}},{"base_weights":[5.796207E-4,2.7442962E-1,-3.82062E-1,5.097772E-1,2.7223637E-2,-1.02415875E-1,-5.0681055E-1,6.3991505E-1,2.7392885E-1,2.2246322E-1,-1.5568833E-1,1.22369334E-1,-3.4098566E-1,-2.9114854E-1,-6.2888116E-1,7.447302E-1,5.3312415E-1,4.5095286E-1,3.3878874E-2,3.0835557E-1,-6.087826E-2,-5.295325E-3,-4.1940376E-1,-7.5777656E-1,1.8577911E-1,-7.945151E-1,-2.7288058E-1,7.5532556E-2,-3.9930248E-1,-5.498846E-1,-8.048474E-1,4.1845426E-2,3.2842353E-2,3.4142256E-2,2.0534873E-2,3.1662665E-2,1.5597631E-2,-4.0708636E-3,1.6589021E-2,1.4719192E-4,1.826508E-2,-1.039747E-2,9.873223E-3,6.8546287E-3,-1.0786213E-2,-2.7183274E-2,2.2526009E-3,-4.934814E-2,-2.1311868E-2,1.5617347E-2,-4.866485E-3,-2.687794E-2,-6.1709315E-2,-9.215282E-3,-2.590519E-2,1.3539518E-2,-2.3625456E-3,-2.8194223E-2,-1.4111062E-2,-2.1254139E-2,-3.372682E-2,-3.35978E-2,-4.5676336E-2],"categories":[],"categories_nodes":[],"categories_segments":[],"categories_sizes":[],"default_left":[0,0,0,1,0,0,0,0,0,0,0,0,0,0,0,0,0,0,0,0,0,0,0,0,0,0,0,0,0,0,0,0,0,0,0,0,0,0,0,0,0,0,0,0,0,0,0,0,0,0,0,0,0,0,0,0,0,0,0,0,0,0,0],"id":11,"left_children":[1,3,5,7,9,11,13,15,17,19,21,23,25,27,29,31,33,35,37,39,41,43,45,47,49,51,53,55,57,59,61,-1,-1,-1,-1,-1,-1,-1,-1,-1,-1,-1,-1,-1,-1,-1,-1,-1,-1,-1,-1,-1,-1,-1,-1,-1,-1,-1,-1,-1,-1,-1,-1],"loss_changes":[3.6083362E3,1.1676788E3,5.010027E2,3.1522974E2,3.497188E2,2.3784656E2,2.6112207E2,7.335474E1,1.5548059E2,1.1531366E2,2.0053009E2,1.27765E2,6.60182E1,1.4258374E2,8.725757E1,2.5941895E1,5.9713013E1,5.297357E1,5.3478287E1,6.3220398E1,4.201061E1,9.6597336E1,1.06026855E2,1.0852753E1,7.646796E1,3.0288712E1,4.0503952E1,1.969062E1,5.3165253E1,6.760498E1,2.7084229E1,0E0,0E0,0E0,0E0,0E0,0E0,0E0,0E0,0E0,0E0,0E0,0E0,0E0,0E0,0E0,0E0,0E0,0E0,0E0,0E0,0E0,0E0,0E0,0E0,0E0,0E0,0E0,0E0,0E0,0E0,0E0,0E0],"parents":[2147483647,0,0,1,1,2,2,3,3,4,4,5,5,6,6,7,7,8,8,9,9,10,10,11,11,12,12,13,13,14,14,15,15,16,16,17,17,18,18,19,19,20,20,21,21,22,22,23,23,24,24,25,25,26,26,27,27,28,28,29,29,30,30],"right_children":[2,4,6,8,10,12,14,16,18,20,22,24,26,28,30,32,34,36,38,40,42,44,46,48,50,52,54,56,58,60,62,-1,-1,-1,-1,-1,-1,-1,-1,-1,-1,-1,-1,-1,-1,-1,-1,-1,-1,-1,-1,-1,-1,-1,-1,-1,-1,-1,-1,-1,-1,-1,-1],"split_conditions":[3.91E2,3.735651E-1,1.4E1,1.0282964E0,2.3283064E-10,3.6110812E-1,-9.372771E-2,-3.2800087E-1,1.5E1,8.855381E-1,1.5E1,1.228655E4,1.451043E4,1.0788461E0,8.319311E-1,7.9E1,5.8E1,-5.4208386E-1,2.1E1,-6.1887987E-2,2.170616E4,8.6442965E-1,2.390218E4,1E0,8.99E2,5.59218E0,9.449641E-1,-6.6712415E-1,1.6E1,3.8876014E0,3.9669178E0,4.1845426E-2,3.2842353E-2,3.4142256E-2,2.0534873E-2,3.1662665E-2,1.5597631E-2,-4.0708636E-3,1.6589021E-2,1.4719192E-4,1.826508E-2,-1.039747E-2,9.873223E-3,6.8546287E-3,-1.0786213E-2,-2.7183274E-2,2.2526009E-3,-4.934814E-2,-2.1311868E-2,1.5617347E-2,-4.866485E-3,-2.687794E-2,-6.1709315E-2,-9.215282E-3,-2.590519E-2,1.3539518E-2,-2.3625456E-3,-2.8194223E-2,-1.4111062E-2,-2.1254139E-2,-3.372682E-2,-3.35978E-2,-4.5676336E-2],"split_indices":[8,0,6,3,4,1,0,0,6,0,6,9,9,4,0,8,8,0,6,2,9,1,9,6,8,4,0,0,6,4,3,0,0,0,0,0,0,0,0,0,0,0,0,0,0,0,0,0,0,0,0,0,0,0,0,0,0,0,0,0,0,0,0],"split_type":[0,0,0,0,0,0,0,0,0,0,0,0,0,0,0,0,0,0,0,0,0,0,0,0,0,0,0,0,0,0,0,0,0,0,0,0,0,0,0,0,0,0,0,0,0,0,0,0,0,0,0,0,0,0,0,0,0,0,0,0,0,0,0],"sum_hessian":[3.4431156E4,2.0068814E4,1.436234E4,1.0279907E4,9.788908E3,4.43165E3,9.93069E3,6.6223574E3,3.6575503E3,4.7346875E3,5.0542207E3,2.282246E3,2.1494038E3,3.591812E3,6.338878E3,3.3360642E3,3.286293E3,2.1041184E3,1.5534319E3,3.6331538E3,1.1015336E3,3.2199634E3,1.8342573E3,1.5190196E2,2.130344E3,2.7784293E2,1.8715608E3,8.182502E2,2.7735618E3,4.380562E3,1.9583163E3,1.619923E3,1.7161412E3,1.4742336E3,1.8120594E3,9.072016E2,1.1969167E3,1.1210197E3,4.3241226E2,5.712958E2,3.0618582E3,7.0218115E2,3.993524E2,1.9208837E3,1.2990796E3,1.4468281E3,3.8742917E2,8.7477066E1,6.4424904E1,1.4720406E3,6.583034E2,1.7816411E2,9.9678825E1,1.3775067E3,4.9405408E2,3.1496408E2,5.0328607E2,1.1497365E3,1.6238253E3,2.1933706E3,2.1871912E3,8.8748236E2,1.070834E3],"tree_param":{"num_deleted":"0","num_feature":"10","num_nodes":"63","size_leaf_vector":"1"}},{"base_weights":[8.764176E-4,3.1034124E-1,-3.0498657E-1,5.213387E-1,5.44757E-2,-1.296445E-1,-4.8680347E-1,6.5970504E-1,3.8238633E-1,1.832732E-1,-2.0466824E-1,1.0282952E-1,-2.8333715E-1,-3.8462365E-1,-6.539801E-1,7.585748E-1,5.161211E-1,5.4695934E-1,2.4374284E-1,3.148282E-1,4.136285E-3,-2.8201118E-1,8.6281866E-2,2.4018338E-1,-7.459685E-2,-4.3522465E-1,-1.4192434E-1,-1.5139073E-1,-4.7007316E-1,-6.154163E-1,-1.1182772E0,1.9552743E-2,3.8713124E-2,4.4224495E-3,2.686792E-2,2.9249653E-2,1.6118294E-2,1.9297441E-2,5.5788467E-3,6.2058265E-3,2.117936E-2,-1.0793337E-2,6.2335334E-3,-2.558263E-2,-8.674763E-3,1.5972516E-2,-1.7999234E-3,2.1215914E-2,5.4963077E-3,7.573504E-3,-1.0268262E-2,-1.5725784E-2,-3.0183256E-2,-8.3820394E-4,-1.8700922E-2,9.989403E-3,-1.1869682E-2,-1.7761637E-2,-3.3577725E-2,-2.3856012E-2,-3.7806075E-2,-3.506846E-2,-7.533433E-2],"categories":[],"categories_nodes":[],"categories_segments":[],"categories_sizes":[],"default_left":[1,0,0,1,0,0,0,0,0,0,0,0,0,0,0,0,0,0,0,0,0,0,0,0,0,0,0,0,0,0,0,0,0,0,0,0,0,0,0,0,0,0,0,0,0,0,0,0,0,0,0,0,0,0,0,0,0,0,0,0,0,0,0],"id":12,"left_children":[1,3,5,7,9,11,13,15,17,19,21,23,25,27,29,31,33,35,37,39,41,43,45,47,49,51,53,55,57,59,61,-1,-1,-1,-1,-1,-1,-1,-1,-1,-1,-1,-1,-1,-1,-1,-1,-1,-1,-1,-1,-1,-1,-1,-1,-1,-1,-1,-1,-1,-1,-1,-1],"loss_changes":[3.2582178E3,9.236865E2,5.5178235E2,1.7978467E2,2.5825577E2,3.15037E2,1.4466638E2,6.587854E1,1.0659558E2,1.2179295E2,5.7860344E1,8.557652E1,1.1387729E2,1.0507355E2,5.6295166E1,1.5403198E1,1.7353851E1,1.7901917E1,4.7757645E1,6.170114E1,5.8138E1,5.0410187E1,1.5449268E1,4.737092E1,4.538529E1,5.1631256E1,7.99167E1,4.2937767E1,8.890216E1,5.723535E1,3.7489136E1,0E0,0E0,0E0,0E0,0E0,0E0,0E0,0E0,0E0,0E0,0E0,0E0,0E0,0E0,0E0,0E0,0E0,0E0,0E0,0E0,0E0,0E0,0E0,0E0,0E0,0E0,0E0,0E0,0E0,0E0,0E0,0E0],"parents":[2147483647,0,0,1,1,2,2,3,3,4,4,5,5,6,6,7,7,8,8,9,9,10,10,11,11,12,12,13,13,14,14,15,15,16,16,17,17,18,18,19,19,20,20,21,21,22,22,23,23,24,24,25,25,26,26,27,27,28,28,29,29,30,30],"right_children":[2,4,6,8,10,12,14,16,18,20,22,24,26,28,30,32,34,36,38,40,42,44,46,48,50,52,54,56,58,60,62,-1,-1,-1,-1,-1,-1,-1,-1,-1,-1,-1,-1,-1,-1,-1,-1,-1,-1,-1,-1,-1,-1,-1,-1,-1,-1,-1,-1,-1,-1,-1,-1],"split_conditions":[1.7132249E0,4.5748815E-1,3.621906E0,3.718145E-1,8.701037E-1,7.077063E-2,6.263231E0,-8.317478E-2,-4.553503E-1,2.3283064E-10,2.42749E4,2.169607E0,8.367E1,-3.5022315E-1,1.4663756E1,1.0457052E-2,1.418297E4,2.8971014E0,2.3283064E-10,1.853007E4,1.783443E4,1.1114571E-1,9.395819E-1,-6.199459E-1,-6.973574E-1,1.1003515E-2,8.7329465E-1,4.4503644E-1,1.1079258E-2,2.6049408E-1,1.2935132E1,1.9552743E-2,3.8713124E-2,4.4224495E-3,2.686792E-2,2.9249653E-2,1.6118294E-2,1.9297441E-2,5.5788467E-3,6.2058265E-3,2.117936E-2,-1.0793337E-2,6.2335334E-3,-2.558263E-2,-8.674763E-3,1.5972516E-2,-1.7999234E-3,2.1215914E-2,5.4963077E-3,7.573504E-3,-1.0268262E-2,-1.5725784E-2,-3.0183256E-2,-8.3820394E-4,-1.8700922E-2,9.989403E-3,-1.1869682E-2,-1.7761637E-2,-3.3577725E-2,-2.3856012E-2,-3.7806075E-2,-3.506846E-2,-7.533433E-2],"split_indices":[3,0,3,3,1,0,3,0,0,4,9,4,7,0,3,5,9,4,4,9,9,2,0,0,0,5,0,4,5,0,4,0,0,0,0,0,0,0,0,0,0,0,0,0,0,0,0,0,0,0,0,0,0,0,0,0,0,0,0,0,0,0,0],"split_type":[0,0,0,0,0,0,0,0,0,0,0,0,0,0,0,0,0,0,0,0,0,0,0,0,0,0,0,0,0,0,0,0,0,0,0,0,0,0,0,0,0,0,0,0,0,0,0,0,0,0,0,0,0,0,0,0,0,0,0,0,0,0,0],"sum_hessian":[3.441846E4,1.710848E4,1.730998E4,9.375212E3,7.733268E3,8.813638E3,8.496342E3,4.693757E3,4.681455E3,5.1661953E3,2.5670728E3,3.508053E3,5.305585E3,5.2773687E3,3.2189731E3,2.774625E3,1.9191318E3,2.1378674E3,2.543588E3,2.977821E3,2.1883743E3,2.0280262E3,5.390464E2,1.9769209E3,1.5311321E3,2.5560493E3,2.7495356E3,1.416527E3,3.8608416E3,2.9764084E3,2.4256474E2,1.157101E2,2.658915E3,9.128036E1,1.8278514E3,1.8255164E3,3.1235107E2,1.2234053E3,1.3201826E3,1.0830128E3,1.8948083E3,7.740227E2,1.4143516E3,6.484166E2,1.3796096E3,1.8433159E2,3.547148E2,8.171965E2,1.1597245E3,5.609934E2,9.7013873E2,1.4923354E3,1.0637137E3,1.7876582E3,9.618773E2,2.7814032E2,1.1383866E3,2.4626853E3,1.3981562E3,1.5054833E3,1.4709252E3,1.196969E2,1.2286785E2],"tree_param":{"num_deleted":"0","num_feature":"10","num_nodes":"63","size_leaf_vector":"1"}},{"base_weights":[3.4335721E-3,3.0852872E-1,-2.823158E-1,5.37787E-1,8.582889E-2,-6.914424E-2,-4.1301885E-1,6.512751E-1,3.825739E-1,1.9056484E-1,-1.8847716E-1,2.4873604E-1,-1.9631721E-1,-3.3229095E-1,-6.452263E-1,7.283138E-1,5.021206E-1,5.345915E-1,2.3812377E-1,1.00039154E-1,4.1899037E-1,-2.4168874E-1,2.944666E-1,1.5945543E-1,4.288663E-1,-9.667345E-2,-3.948641E-1,-1.5483132E-1,-4.6395856E-1,-5.991238E-1,-1.0534463E0,2.2454679E-2,3.7459504E-2,3.3517104E-2,1.9319836E-2,-4.2425252E-2,2.7194887E-2,5.793339E-3,1.912172E-2,-6.037686E-3,9.861621E-3,2.6031628E-2,1.1752709E-2,-2.5091415E-2,-7.5111277E-3,1.8531159E-2,-1.5519938E-2,1.6561724E-2,1.1526354E-3,3.0024314E-2,1.5903166E-2,-1.2898994E-2,3.6769917E-3,-3.2304894E-2,-1.5127464E-2,5.419772E-3,-1.0980089E-2,-1.8079111E-2,-3.3895638E-2,-2.4690952E-2,-3.4894448E-2,-4.228501E-2,-6.807099E-2],"categories":[],"categories_nodes":[],"categories_segments":[],"categories_sizes":[],"default_left":[0,0,0,0,0,0,0,0,0,0,0,0,0,0,0,0,0,0,0,0,0,0,0,0,0,0,0,0,0,0,0,0,0,0,0,0,0,0,0,0,0,0,0,0,0,0,0,0,0,0,0,0,0,0,0,0,0,0,0,0,0,0,0],"id":13,"left_children":[1,3,5,7,9,11,13,15,17,19,21,23,25,27,29,31,33,35,37,39,41,43,45,47,49,51,53,55,57,59,61,-1,-1,-1,-1,-1,-1,-1,-1,-1,-1,-1,-1,-1,-1,-1,-1,-1,-1,-1,-1,-1,-1,-1,-1,-1,-1,-1,-1,-1,-1,-1,-1],"loss_changes":[2.996379E3,8.485659E2,4.9442822E2,1.4376904E2,2.4238028E2,2.7289325E2,2.0580115E2,5.3597534E1,7.581131E1,1.2614911E2,6.0057396E1,3.088768E1,9.530084E1,1.9069708E2,5.2109985E1,1.7474854E1,3.0956085E1,2.2626678E1,3.1312675E1,9.392451E1,3.2136047E1,4.9844986E1,1.0930567E1,3.0281467E1,1.175238E1,8.824505E1,3.695659E1,5.9410606E1,1.0218909E2,2.586084E1,1.5940582E1,0E0,0E0,0E0,0E0,0E0,0E0,0E0,0E0,0E0,0E0,0E0,0E0,0E0,0E0,0E0,0E0,0E0,0E0,0E0,0E0,0E0,0E0,0E0,0E0,0E0,0E0,0E0,0E0,0E0,0E0,0E0,0E0],"parents":[2147483647,0,0,1,1,2,2,3,3,4,4,5,5,6,6,7,7,8,8,9,9,10,10,11,11,12,12,13,13,14,14,15,15,16,16,17,17,18,18,19,19,20,20,21,21,22,22,23,23,24,24,25,25,26,26,27,27,28,28,29,29,30,30],"right_children":[2,4,6,8,10,12,14,16,18,20,22,24,26,28,30,32,34,36,38,40,42,44,46,48,50,52,54,56,58,60,62,-1,-1,-1,-1,-1,-1,-1,-1,-1,-1,-1,-1,-1,-1,-1,-1,-1,-1,-1,-1,-1,-1,-1,-1,-1,-1,-1,-1,-1,-1,-1,-1],"split_conditions":[3E2,3.449388E-1,5.48E2,1.36E2,9.102535E-1,-2.718379E-1,7.473432E-1,-8.317478E-2,-4.553503E-1,2.282024E4,2.723148E4,1.5744E2,8.264372E-1,3.495153E0,1.12368355E1,1.493398E4,4.2E1,1.0285225E-2,4.615E1,-1.055E1,1.42E2,-6.59E0,2.3294702E0,-7.3352E-1,2.764864E-10,8.668E1,7.8314126E-2,-6.747521E-1,1.1113303E-2,9.2850834E-1,2.036E3,2.2454679E-2,3.7459504E-2,3.3517104E-2,1.9319836E-2,-4.2425252E-2,2.7194887E-2,5.793339E-3,1.912172E-2,-6.037686E-3,9.861621E-3,2.6031628E-2,1.1752709E-2,-2.5091415E-2,-7.5111277E-3,1.8531159E-2,-1.5519938E-2,1.6561724E-2,1.1526354E-3,3.0024314E-2,1.5903166E-2,-1.2898994E-2,3.6769917E-3,-3.2304894E-2,-1.5127464E-2,5.419772E-3,-1.0980089E-2,-1.8079111E-2,-3.3895638E-2,-2.4690952E-2,-3.4894448E-2,-4.228501E-2,-6.807099E-2],"split_indices":[8,0,8,8,0,0,0,0,0,9,9,7,0,4,4,9,8,5,7,7,8,7,4,0,4,7,2,0,5,0,8,0,0,0,0,0,0,0,0,0,0,0,0,0,0,0,0,0,0,0,0,0,0,0,0,0,0,0,0,0,0,0,0],"split_type":[0,0,0,0,0,0,0,0,0,0,0,0,0,0,0,0,0,0,0,0,0,0,0,0,0,0,0,0,0,0,0,0,0,0,0,0,0,0,0,0,0,0,0,0,0,0,0,0,0,0,0,0,0,0,0,0,0,0,0,0,0,0,0],"sum_hessian":[3.4365734E4,1.6620178E4,1.7745557E4,8.1881055E3,8.432073E3,6.7460596E3,1.0999498E4,4.7261025E3,3.462003E3,6.1025854E3,2.3294878E3,1.9271252E3,4.8189346E3,8.1655664E3,2.8339316E3,3.1113274E3,1.6147749E3,1.6841849E3,1.777818E3,4.3725913E3,1.7299944E3,2.099194E3,2.3029373E2,1.2910123E3,6.361129E2,3.2106133E3,1.6083212E3,3.4798408E3,4.6857256E3,2.5507922E3,2.8313947E2,2.1957188E2,2.8917556E3,6.5420636E2,9.6056854E2,1.0051028E1,1.6741339E3,9.6440216E2,8.134158E2,1.3363452E3,3.036246E3,1.111902E3,6.1809235E2,5.437469E2,1.5554471E3,2.0522862E2,2.5065113E1,5.7014386E2,7.208685E2,2.4609843E2,3.9001447E2,1.6479065E3,1.5627067E3,4.2894757E2,1.1793735E3,6.8690717E2,2.7929338E3,3.172889E3,1.5128364E3,1.2403324E3,1.3104597E3,1.7355708E2,1.0958239E2],"tree_param":{"num_deleted":"0","num_feature":"10","num_nodes":"63","size_leaf_vector":"1"}},{"base_weights":[3.0417908E-3,3.0248916E-1,-2.62528E-1,5.2481425E-1,8.715072E-2,2.7517727E-4,-3.9984587E-1,6.151012E-1,2.9988867E-1,2.0007062E-1,-1.4880945E-1,2.157157E-1,-1.9106129E-1,-2.9853693E-1,-5.721938E-1,7.7031636E-1,5.47026E-1,5.5197984E-1,1.5680104E-1,2.9632998E-1,-3.7984155E-2,-5.7471305E-1,-1.0302814E-1,3.9160618E-1,-2.3077438E-2,-4.468577E-1,-8.173613E-2,-4.8603776E-1,-1.9631615E-1,-2.8911856E-1,-6.4687854E-1,4.1387223E-2,3.1977445E-2,3.2842387E-2,2.0554774E-2,3.4508858E-2,1.767118E-2,1.9056002E-2,1.1134857E-3,1.9533958E-2,7.201601E-3,1.6406393E-2,-7.1620247E-3,-2.155662E-2,-5.1576078E-2,3.3841499E-3,-9.613547E-3,5.792044E-3,2.2529515E-2,7.512156E-3,-1.524982E-2,-1.4561221E-2,-3.7170466E-2,-1.6061964E-3,-2.1254739E-2,-2.1722626E-2,-4.0088363E-2,-2.5241661E-3,-1.6662277E-2,2.635033E-3,-1.9022664E-2,-3.4914963E-2,-1.459719E-2],"categories":[],"categories_nodes":[],"categories_segments":[],"categories_sizes":[],"default_left":[0,0,0,0,0,0,0,0,0,0,0,0,0,0,0,0,0,0,0,0,0,0,0,0,0,0,0,0,0,0,0,0,0,0,0,0,0,0,0,0,0,0,0,0,0,0,0,0,0,0,0,0,0,0,0,0,0,0,0,0,0,0,0],"id":14,"left_children":[1,3,5,7,9,11,13,15,17,19,21,23,25,27,29,31,33,35,37,39,41,43,45,47,49,51,53,55,57,59,61,-1,-1,-1,-1,-1,-1,-1,-1,-1,-1,-1,-1,-1,-1,-1,-1,-1,-1,-1,-1,-1,-1,-1,-1,-1,-1,-1,-1,-1,-1,-1,-1],"loss_changes":[2.7350369E3,7.738192E2,6.577804E2,1.6114258E2,2.1891876E2,2.5802478E2,2.0869226E2,5.910254E1,8.2139206E1,1.27344925E2,5.1742085E1,1.23681625E2,9.263598E1,1.4440149E2,9.32793E1,1.1893372E1,5.8433594E1,2.2162735E1,4.3997055E1,5.674185E1,6.181263E1,1.6013718E1,3.6650566E1,2.7475037E1,6.120464E1,4.5359787E1,3.9578457E1,4.263263E1,9.752725E1,2.9024025E1,6.3534058E1,0E0,0E0,0E0,0E0,0E0,0E0,0E0,0E0,0E0,0E0,0E0,0E0,0E0,0E0,0E0,0E0,0E0,0E0,0E0,0E0,0E0,0E0,0E0,0E0,0E0,0E0,0E0,0E0,0E0,0E0,0E0,0E0],"parents":[2147483647,0,0,1,1,2,2,3,3,4,4,5,5,6,6,7,7,8,8,9,9,10,10,11,11,12,12,13,13,14,14,15,15,16,16,17,17,18,18,19,19,20,20,21,21,22,22,23,23,24,24,25,25,26,26,27,27,28,28,29,29,30,30],"right_children":[2,4,6,8,10,12,14,16,18,20,22,24,26,28,30,32,34,36,38,40,42,44,46,48,50,52,54,56,58,60,62,-1,-1,-1,-1,-1,-1,-1,-1,-1,-1,-1,-1,-1,-1,-1,-1,-1,-1,-1,-1,-1,-1,-1,-1,-1,-1,-1,-1,-1,-1,-1,-1],"split_conditions":[2.93E2,3.551015E-1,1.4E1,1.6E1,8.5889417E-1,2.857582E-1,1.107543E-2,5.7E1,7.9E1,1.6E1,-1.6417634E-2,6.11E2,3E0,1.6E1,-5.040796E-1,-1.4188441E-2,-3.166334E-1,-1.4885107E-1,-5.7760674E-1,2.3283064E-10,4.4E1,1.1140889E-2,2.1827873E-10,2E0,4.6962748E0,4.092683E0,6.3523903E0,9.162E-1,2.8362623E-1,1.2023504E0,2.1E1,4.1387223E-2,3.1977445E-2,3.2842387E-2,2.0554774E-2,3.4508858E-2,1.767118E-2,1.9056002E-2,1.1134857E-3,1.9533958E-2,7.201601E-3,1.6406393E-2,-7.1620247E-3,-2.155662E-2,-5.1576078E-2,3.3841499E-3,-9.613547E-3,5.792044E-3,2.2529515E-2,7.512156E-3,-1.524982E-2,-1.4561221E-2,-3.7170466E-2,-1.6061964E-3,-2.1254739E-2,-2.1722626E-2,-4.0088363E-2,-2.5241661E-3,-1.6662277E-2,2.635033E-3,-1.9022664E-2,-3.4914963E-2,-1.459719E-2],"split_indices":[8,0,6,6,1,1,5,8,8,6,2,8,6,6,0,0,0,1,1,4,8,5,4,6,4,4,4,0,0,4,6,0,0,0,0,0,0,0,0,0,0,0,0,0,0,0,0,0,0,0,0,0,0,0,0,0,0,0,0,0,0,0,0],"split_type":[0,0,0,0,0,0,0,0,0,0,0,0,0,0,0,0,0,0,0,0,0,0,0,0,0,0,0,0,0,0,0,0,0,0,0,0,0,0,0,0,0,0,0,0,0,0,0,0,0,0,0,0,0,0,0,0,0,0,0,0,0,0,0],"sum_hessian":[3.4388523E4,1.6163188E4,1.8225334E4,7.951169E3,8.212019E3,6.255452E3,1.1969882E4,5.6712246E3,2.2799448E3,5.55429E3,2.6577288E3,2.9422688E3,3.313183E3,7.542023E3,4.427859E3,1.7227141E3,3.9485103E3,8.234605E2,1.4564843E3,3.95469E3,1.5996002E3,2.5571396E2,2.402015E3,1.6935514E3,1.2487174E3,9.9018854E2,2.3229946E3,2.658358E3,4.883665E3,9.26378E2,3.501481E3,1.1896191E3,5.330949E2,2.1797605E3,1.7687498E3,4.8260806E2,3.4085248E2,5.4465497E2,9.118293E2,2.4399817E3,1.5147084E3,3.562444E2,1.2433558E3,1.9751888E2,5.8195084E1,8.2478314E2,1.5772317E3,2.9945468E2,1.3940968E3,7.738794E2,4.7483804E2,6.519846E2,3.3820398E2,2.0316296E3,2.9136493E2,2.2891057E3,3.6925214E2,2.366271E3,2.517394E3,1.9551418E2,7.3086383E2,3.0567095E3,4.4477173E2],"tree_param":{"num_deleted":"0","num_feature":"10","num_nodes":"63","size_leaf_vector":"1"}},{"base_weights":[1.8511422E-3,2.8206947E-1,-2.5178364E-1,5.0003844E-1,6.24031E-2,-8.449319E-2,-3.849123E-1,6.026068E-1,3.2350636E-1,1.9610336E-1,-1.2708351E-1,1.0647075E-1,-2.4468695E-1,-3.1370988E-1,-5.9883773E-1,7.377836E-1,5.0722915E-1,4.4631052E-1,1.4444594E-1,3.137298E-1,1.8814841E-2,-4.0114588E-1,-5.7615053E-2,2.1060409E-1,-6.0167693E-2,-1.528924E-1,-3.8960811E-1,-2.0131174E-1,-4.496014E-1,-5.245574E-1,-7.6296496E-1,4.1582987E-2,3.3484917E-2,3.0975005E-2,1.9654104E-2,2.675283E-2,1.39481E-2,-3.8393456E-4,1.8225957E-2,2.3959596E-2,1.1664073E-2,-5.9347316E-3,1.1623216E-2,-2.9957084E-2,-1.0798771E-2,3.8883835E-3,-9.928605E-3,1.6163642E-2,3.0079046E-3,6.9669844E-4,-1.1441537E-2,-1.5029095E-2,-9.766973E-4,-2.8713455E-2,-1.4584412E-2,1.3924493E-3,-1.3687106E-2,-2.0740544E-2,-5.4289877E-2,-9.715368E-3,-2.854881E-2,-3.6977086E-2,-6.978344E-2],"categories":[],"categories_nodes":[],"categories_segments":[],"categories_sizes":[],"default_left":[0,0,0,1,0,0,0,0,0,0,0,0,0,0,0,0,0,0,0,0,0,0,0,0,0,0,0,0,0,0,0,0,0,0,0,0,0,0,0,0,0,0,0,0,0,0,0,0,0,0,0,0,0,0,0,0,0,0,0,0,0,0,0],"id":15,"left_children":[1,3,5,7,9,11,13,15,17,19,21,23,25,27,29,31,33,35,37,39,41,43,45,47,49,51,53,55,57,59,61,-1,-1,-1,-1,-1,-1,-1,-1,-1,-1,-1,-1,-1,-1,-1,-1,-1,-1,-1,-1,-1,-1,-1,-1,-1,-1,-1,-1,-1,-1,-1,-1],"loss_changes":[2.4370188E3,7.799447E2,4.007749E2,1.4766174E2,2.0566528E2,2.44119E2,1.5227722E2,6.590051E1,6.604175E1,9.923743E1,6.3900383E1,6.320634E1,5.760672E1,1.14730774E2,2.9683716E1,1.2526733E1,3.8437378E1,2.6197357E1,4.1089172E1,3.785858E1,5.588557E1,2.4630646E1,5.1209972E1,3.7950623E1,1.7526535E1,5.2376587E1,3.0068497E1,6.8420456E1,7.444501E1,2.6264954E1,9.416199E0,0E0,0E0,0E0,0E0,0E0,0E0,0E0,0E0,0E0,0E0,0E0,0E0,0E0,0E0,0E0,0E0,0E0,0E0,0E0,0E0,0E0,0E0,0E0,0E0,0E0,0E0,0E0,0E0,0E0,0E0,0E0,0E0],"parents":[2147483647,0,0,1,1,2,2,3,3,4,4,5,5,6,6,7,7,8,8,9,9,10,10,11,11,12,12,13,13,14,14,15,15,16,16,17,17,18,18,19,19,20,20,21,21,22,22,23,23,24,24,25,25,26,26,27,27,28,28,29,29,30,30],"right_children":[2,4,6,8,10,12,14,16,18,20,22,24,26,28,30,32,34,36,38,40,42,44,46,48,50,52,54,56,58,60,62,-1,-1,-1,-1,-1,-1,-1,-1,-1,-1,-1,-1,-1,-1,-1,-1,-1,-1,-1,-1,-1,-1,-1,-1,-1,-1,-1,-1,-1,-1,-1,-1],"split_conditions":[3.03E2,3.9383927E-1,3.2741883E0,7.825593E-1,8.377219E-1,2.3861805E-1,7.686518E-1,-4.350122E-1,-2.1496277E-1,2.3283064E-10,3.683011E-2,2.4924645E0,8.5510963E-1,4.9683366E0,1.1120755E-2,5.8E1,5.8E1,1.5475552E0,7.781E1,4.4E1,1.421765E-1,6.91E0,7.3299706E-1,-3.2800087E-1,6.31E2,8.222362E-2,1.13064E-1,-5.9485334E-1,5.036E3,5.32E2,1.4663756E1,4.1582987E-2,3.3484917E-2,3.0975005E-2,1.9654104E-2,2.675283E-2,1.39481E-2,-3.8393456E-4,1.8225957E-2,2.3959596E-2,1.1664073E-2,-5.9347316E-3,1.1623216E-2,-2.9957084E-2,-1.0798771E-2,3.8883835E-3,-9.928605E-3,1.6163642E-2,3.0079046E-3,6.9669844E-4,-1.1441537E-2,-1.5029095E-2,-9.766973E-4,-2.8713455E-2,-1.4584412E-2,1.3924493E-3,-1.3687106E-2,-2.0740544E-2,-5.4289877E-2,-9.715368E-3,-2.854881E-2,-3.6977086E-2,-6.978344E-2],"split_indices":[8,0,3,3,0,1,0,0,0,4,2,4,0,4,5,8,8,3,7,8,2,7,3,0,8,2,2,1,8,8,3,0,0,0,0,0,0,0,0,0,0,0,0,0,0,0,0,0,0,0,0,0,0,0,0,0,0,0,0,0,0,0,0],"split_type":[0,0,0,0,0,0,0,0,0,0,0,0,0,0,0,0,0,0,0,0,0,0,0,0,0,0,0,0,0,0,0,0,0,0,0,0,0,0,0,0,0,0,0,0,0,0,0,0,0,0,0,0,0,0,0,0,0,0,0,0,0,0,0],"sum_hessian":[3.4284895E4,1.6288723E4,1.7996172E4,8.1746685E3,8.1140547E3,7.9763286E3,1.0019844E4,5.1674556E3,3.007213E3,4.757283E3,3.3567715E3,3.6390076E3,4.3373213E3,7.5213794E3,2.4984646E3,2.1321423E3,3.035313E3,1.7820518E3,1.2251611E3,2.8589219E3,1.8983613E3,6.768719E2,2.6798997E3,2.2391943E3,1.3998132E3,2.657894E3,1.6794272E3,4.119245E3,3.4021338E3,1.7257987E3,7.72666E2,8.8688043E2,1.245262E3,1.525768E3,1.509545E3,1.1616345E3,6.204173E2,7.2555475E2,4.9960638E2,9.3203876E2,1.926883E3,1.1555275E3,7.428339E2,3.2494705E2,3.5192487E2,1.3674365E3,1.3124631E3,1.2790319E3,9.601624E2,9.7380804E2,4.2600522E2,1.2599921E3,1.3979019E3,5.785833E2,1.100844E3,9.8957697E2,3.1296685E3,3.2288665E3,1.7326746E2,2.1395695E2,1.5118417E3,7.492653E2,2.3400698E1],"tree_param":{"num_deleted":"0","num_feature":"10","num_nodes":"63","size_leaf_vector":"1"}},{"base_weights":[5.386094E-3,2.7930555E-1,-2.3458292E-1,4.7920966E-1,5.6448065E-2,7.874019E-4,-3.533173E-1,5.8469087E-1,2.54594E-1,1.6958989E-1,-1.4100967E-1,1.8571426E-1,-1.8335997E-1,-2.602629E-1,-5.084777E-1,7.1101934E-1,5.008178E-1,5.1841146E-1,1.1030867E-1,2.6418585E-1,-6.521793E-2,-2.3501515E-1,1.7155312E-1,2.964359E-1,-1.1824454E-1,-6.759562E-1,-1.3786077E-1,-4.2866936E-1,-1.6792072E-1,-2.2552443E-1,-5.693573E-1,4.177865E-2,3.2141622E-2,3.6389407E-2,2.1430502E-2,3.0660907E-2,1.4873075E-2,-7.9209264E-4,1.7904127E-2,3.4453978E-3,1.7647628E-2,1.4424728E-2,-8.14247E-3,-6.966222E-3,-2.253822E-2,-2.9352633E-3,1.349501E-2,3.780232E-3,1.8736243E-2,-3.9845463E-2,-2.1350512E-3,-3.864137E-2,-6.3413256E-3,-1.7710766E-3,-1.3566381E-2,-8.671636E-3,-2.4366857E-2,-5.418259E-3,-1.972816E-2,3.8435105E-3,-1.6103989E-2,-3.0740667E-2,-1.2704763E-2],"categories":[],"categories_nodes":[],"categories_segments":[],"categories_sizes":[],"default_left":[0,0,0,0,0,0,0,0,0,0,0,0,0,0,0,0,0,0,0,0,0,0,0,0,0,0,0,0,0,0,0,0,0,0,0,0,0,0,0,0,0,0,0,0,0,0,0,0,0,0,0,0,0,0,0,0,0,0,0,0,0,0,0],"id":16,"left_children":[1,3,5,7,9,11,13,15,17,19,21,23,25,27,29,31,33,35,37,39,41,43,45,47,49,51,53,55,57,59,61,-1,-1,-1,-1,-1,-1,-1,-1,-1,-1,-1,-1,-1,-1,-1,-1,-1,-1,-1,-1,-1,-1,-1,-1,-1,-1,-1,-1,-1,-1,-1,-1],"loss_changes":[2.2497258E3,7.119563E2,5.0984106E2,1.9930676E2,1.6893288E2,2.084491E2,1.7481836E2,6.001184E1,1.02494736E2,1.0680078E2,8.1023544E1,1.0285584E2,6.8554665E1,1.1779932E2,7.801782E1,1.8306763E1,5.5935852E1,1.9587738E1,5.45584E1,5.935135E1,4.781807E1,4.3614952E1,1.4481842E1,3.8656494E1,4.1813023E1,1.3572151E1,3.8402885E1,4.0030975E1,6.6076065E1,2.3637669E1,5.325659E1,0E0,0E0,0E0,0E0,0E0,0E0,0E0,0E0,0E0,0E0,0E0,0E0,0E0,0E0,0E0,0E0,0E0,0E0,0E0,0E0,0E0,0E0,0E0,0E0,0E0,0E0,0E0,0E0,0E0,0E0,0E0,0E0],"parents":[2147483647,0,0,1,1,2,2,3,3,4,4,5,5,6,6,7,7,8,8,9,9,10,10,11,11,12,12,13,13,14,14,15,15,16,16,17,17,18,18,19,19,20,20,21,21,22,22,23,23,24,24,25,25,26,26,27,27,28,28,29,29,30,30],"right_children":[2,4,6,8,10,12,14,16,18,20,22,24,26,28,30,32,34,36,38,40,42,44,46,48,50,52,54,56,58,60,62,-1,-1,-1,-1,-1,-1,-1,-1,-1,-1,-1,-1,-1,-1,-1,-1,-1,-1,-1,-1,-1,-1,-1,-1,-1,-1,-1,-1,-1,-1,-1,-1],"split_conditions":[3E2,4.321529E-1,1.4E1,1.5E1,8.5889417E-1,3.7004152E-1,1.107543E-2,-4.4004884E-1,7.9E1,1.6E1,2.364798E4,8.99E2,1.389773E4,1.6E1,-6.032835E-1,8E1,4.3E1,6.724992E-2,2.1E1,-6.59E0,4.6E1,1.1072143E-2,1.05247736E-1,3E0,1.096624E4,1.1026021E-2,8.318328E-1,5.65E2,8.161476E-1,1.8457268E0,2.1E1,4.177865E-2,3.2141622E-2,3.6389407E-2,2.1430502E-2,3.0660907E-2,1.4873075E-2,-7.9209264E-4,1.7904127E-2,3.4453978E-3,1.7647628E-2,1.4424728E-2,-8.14247E-3,-6.966222E-3,-2.253822E-2,-2.9352633E-3,1.349501E-2,3.780232E-3,1.8736243E-2,-3.9845463E-2,-2.1350512E-3,-3.864137E-2,-6.3413256E-3,-1.7710766E-3,-1.3566381E-2,-8.671636E-3,-2.4366857E-2,-5.418259E-3,-1.972816E-2,3.8435105E-3,-1.6103989E-2,-3.0740667E-2,-1.2704763E-2],"split_indices":[8,1,6,6,1,1,5,1,8,6,9,8,9,6,1,8,8,1,6,7,8,5,2,6,9,5,1,8,1,4,6,0,0,0,0,0,0,0,0,0,0,0,0,0,0,0,0,0,0,0,0,0,0,0,0,0,0,0,0,0,0,0,0],"split_type":[0,0,0,0,0,0,0,0,0,0,0,0,0,0,0,0,0,0,0,0,0,0,0,0,0,0,0,0,0,0,0,0,0,0,0,0,0,0,0,0,0,0,0,0,0,0,0,0,0,0,0,0,0,0,0,0,0,0,0,0,0,0,0],"sum_hessian":[3.4221645E4,1.598023E4,1.8241416E4,8.422717E3,7.5575137E3,6.117171E3,1.2124245E4,5.729088E3,2.693629E3,4.804724E3,2.752789E3,3.0521172E3,3.0650537E3,7.582278E3,4.541967E3,2.280012E3,3.449076E3,9.505028E2,1.7431261E3,3.4247576E3,1.3799667E3,2.1166792E3,6.3611005E2,2.2372239E3,8.1489343E2,2.5682538E2,2.8082283E3,2.6826272E3,4.8996504E3,8.058741E2,3.736093E3,7.9864905E2,1.4813629E3,8.280645E2,2.6210115E3,6.626275E2,2.8787534E2,1.1562897E3,5.868363E2,1.0713804E3,2.3533774E3,2.976587E2,1.082308E3,1.4686042E3,6.4807477E2,1.9062021E2,4.4548984E2,5.865793E2,1.6506445E3,7.970901E1,7.3518445E2,2.176205E2,3.9204884E1,1.5902224E3,1.218006E3,5.0285364E2,2.1797737E3,3.8824128E3,1.0172374E3,1.9513924E2,6.107348E2,3.2636267E3,4.7246616E2],"tree_param":{"num_deleted":"0","num_feature":"10","num_nodes":"63","size_leaf_vector":"1"}},{"base_weights":[1.091475E-3,2.826627E-1,-2.1734641E-1,4.425288E-1,-7.440495E-3,4.3968675E-3,-3.2992238E-1,5.4488313E-1,2.1358362E-1,1.4438288E-1,-1.4578871E-1,2.0698301E-1,-1.4488697E-1,-2.1064062E-1,-4.538613E-1,6.784145E-1,4.110576E-1,4.5262817E-1,6.339784E-2,-8.224159E-2,2.38867E-1,-4.633927E-2,-3.2194152E-1,3.30481E-1,-9.390744E-2,-3.8608858E-1,-3.873253E-2,-3.7804526E-1,-1.2270941E-1,-2.3897256E-1,-5.438835E-1,3.9610278E-2,3.030149E-2,1.0691489E-2,2.3467584E-2,3.0888913E-2,1.3610639E-2,-3.3017674E-3,1.6830947E-2,6.785553E-4,-2.1295924E-2,1.658891E-2,-2.8339734E-3,4.170816E-3,-7.6536327E-3,-2.2295605E-2,-1.7723428E-3,2.4307132E-2,1.168222E-2,1.6920405E-3,-2.3737935E-2,-1.333075E-2,-3.3097785E-2,2.7049792E-3,-1.1375707E-2,-4.710236E-3,-2.1953333E-2,9.668931E-5,-1.1811017E-2,-1.8515153E-2,-1.824702E-3,-2.94987E-2,-1.2000877E-2],"categories":[],"categories_nodes":[],"categories_segments":[],"categories_sizes":[],"default_left":[1,0,0,0,0,0,0,0,0,0,0,0,0,0,0,0,0,0,0,0,0,0,0,0,0,0,0,0,0,0,0,0,0,0,0,0,0,0,0,0,0,0,0,0,0,0,0,0,0,0,0,0,0,0,0,0,0,0,0,0,0,0,0],"id":17,"left_children":[1,3,5,7,9,11,13,15,17,19,21,23,25,27,29,31,33,35,37,39,41,43,45,47,49,51,53,55,57,59,61,-1,-1,-1,-1,-1,-1,-1,-1,-1,-1,-1,-1,-1,-1,-1,-1,-1,-1,-1,-1,-1,-1,-1,-1,-1,-1,-1,-1,-1,-1,-1,-1],"loss_changes":[2.1027434E3,6.926808E2,4.8059515E2,2.254137E2,1.1154004E2,1.9617892E2,1.8858716E2,1.1833093E2,1.0686389E2,5.4253265E1,4.8642914E1,1.0232681E2,9.559693E1,9.574512E1,1.2085205E2,2.6444214E1,3.8061035E1,3.3893738E1,6.480947E1,2.4592152E1,4.9119247E1,2.4651772E1,3.5564537E1,2.9191406E1,3.907197E1,3.7257736E1,4.5512604E1,3.8734863E1,6.043611E1,4.9220284E1,6.1490356E1,0E0,0E0,0E0,0E0,0E0,0E0,0E0,0E0,0E0,0E0,0E0,0E0,0E0,0E0,0E0,0E0,0E0,0E0,0E0,0E0,0E0,0E0,0E0,0E0,0E0,0E0,0E0,0E0,0E0,0E0,0E0,0E0],"parents":[2147483647,0,0,1,1,2,2,3,3,4,4,5,5,6,6,7,7,8,8,9,9,10,10,11,11,12,12,13,13,14,14,15,15,16,16,17,17,18,18,19,19,20,20,21,21,22,22,23,23,24,24,25,25,26,26,27,27,28,28,29,29,30,30],"right_children":[2,4,6,8,10,12,14,16,18,20,22,24,26,28,30,32,34,36,38,40,42,44,46,48,50,52,54,56,58,60,62,-1,-1,-1,-1,-1,-1,-1,-1,-1,-1,-1,-1,-1,-1,-1,-1,-1,-1,-1,-1,-1,-1,-1,-1,-1,-1,-1,-1,-1,-1,-1,-1],"split_conditions":[1.52628E0,6.4095527E-1,1.4E1,1.5E1,2.3283064E-10,2.0718437E-1,1.1003515E-2,-8.317478E-2,7.9E1,-6.59E0,1.4E1,4.162928E0,3E0,1.6E1,-2.2652511E-1,7.9E1,-5.827E1,1.4061821E-2,2.1E1,1.8E1,9.2120093E-1,8.6442965E-1,2.1E1,-6.2803715E-1,1.504E3,7.8E2,8.855381E-1,5.65E2,2.9253057E-1,1.8E1,2.1E1,3.9610278E-2,3.030149E-2,1.0691489E-2,2.3467584E-2,3.0888913E-2,1.3610639E-2,-3.3017674E-3,1.6830947E-2,6.785553E-4,-2.1295924E-2,1.658891E-2,-2.8339734E-3,4.170816E-3,-7.6536327E-3,-2.2295605E-2,-1.7723428E-3,2.4307132E-2,1.168222E-2,1.6920405E-3,-2.3737935E-2,-1.333075E-2,-3.3097785E-2,2.7049792E-3,-1.1375707E-2,-4.710236E-3,-2.1953333E-2,9.668931E-5,-1.1811017E-2,-1.8515153E-2,-1.824702E-3,-2.94987E-2,-1.2000877E-2],"split_indices":[3,1,6,6,4,0,5,0,8,7,6,4,6,6,0,8,7,0,6,6,1,1,6,0,8,8,0,8,0,6,6,0,0,0,0,0,0,0,0,0,0,0,0,0,0,0,0,0,0,0,0,0,0,0,0,0,0,0,0,0,0,0,0],"split_type":[0,0,0,0,0,0,0,0,0,0,0,0,0,0,0,0,0,0,0,0,0,0,0,0,0,0,0,0,0,0,0,0,0,0,0,0,0,0,0,0,0,0,0,0,0,0,0,0,0,0,0,0,0,0,0,0,0,0,0,0,0,0,0],"sum_hessian":[3.418372E4,1.493351E4,1.9250209E4,9.627221E3,5.306289E3,6.4828066E3,1.2767401E4,6.6510024E3,2.9762183E3,2.5298948E3,2.7763945E3,2.750058E3,3.7327488E3,6.508687E3,6.2587144E3,3.3250867E3,3.3259158E3,1.1468293E3,1.8293889E3,7.444813E2,1.7854135E3,1.7761635E3,1.000231E3,1.9496455E3,8.004125E2,1.1391423E3,2.5936064E3,2.2391553E3,4.269532E3,1.8499869E3,4.4087275E3,1.2850535E3,2.0400331E3,7.608957E2,2.56502E3,5.962139E2,5.506155E2,1.2423611E3,5.8702783E2,5.8367993E2,1.6080144E2,1.3581921E3,4.272213E2,8.0182416E2,9.743393E2,6.973599E2,3.028711E2,7.446327E2,1.2050128E3,6.0073224E2,1.9968025E2,7.976332E2,3.4150916E2,1.7395977E3,8.5400885E2,3.971062E2,1.842049E3,2.0359158E3,2.2336165E3,1.121141E3,7.288459E2,3.826448E3,5.8227954E2],"tree_param":{"num_deleted":"0","num_feature":"10","num_nodes":"63","size_leaf_vector":"1"}},{"base_weights":[5.262401E-3,2.8411043E-1,-1.8726814E-1,5.2446824E-1,1.5045175E-1,2.7552778E-2,-3.105453E-1,6.893837E-1,3.9370462E-1,-1.4202957E-1,2.2687517E-1,4.19512E-1,-6.1751373E-2,-4.61295E-2,-3.610945E-1,7.610172E-1,6.0487205E-1,5.4552E-1,1.9728002E-1,-2.5947662E-2,-4.808241E-1,3.5168993E-1,7.688882E-2,5.7009953E-1,1.2195557E-1,-2.8288016E-1,2.7292682E-2,1.9983801E-1,-1.7363349E-1,-4.847787E-1,-2.9570067E-1,2.1590497E-2,3.88683E-2,3.1210462E-2,1.2040258E-2,3.0530194E-2,1.8673008E-2,5.342664E-3,2.1109106E-2,6.464521E-3,-1.0486471E-2,-3.7725683E-2,-1.4815183E-2,2.0466266E-2,4.0759966E-3,-5.311125E-3,1.0335272E-2,3.9755326E-2,2.6148418E-2,-4.2933498E-2,8.501129E-3,-4.980044E-2,-1.14084175E-2,7.6164887E-3,-7.4128024E-3,3.7060988E-3,2.3988312E-2,-5.3001167E-3,-1.570495E-2,-2.8642867E-2,-1.9500742E-2,-1.3741635E-2,-4.0710744E-2],"categories":[],"categories_nodes":[],"categories_segments":[],"categories_sizes":[],"default_left":[0,0,0,1,0,0,0,0,0,0,1,0,0,0,0,0,0,0,0,0,0,0,0,0,0,0,0,0,0,0,0,0,0,0,0,0,0,0,0,0,0,0,0,0,0,0,0,0,0,0,0,0,0,0,0,0,0,0,0,0,0,0,0],"id":18,"left_children":[1,3,5,7,9,11,13,15,17,19,21,23,25,27,29,31,33,35,37,39,41,43,45,47,49,51,53,55,57,59,61,-1,-1,-1,-1,-1,-1,-1,-1,-1,-1,-1,-1,-1,-1,-1,-1,-1,-1,-1,-1,-1,-1,-1,-1,-1,-1,-1,-1,-1,-1,-1,-1],"loss_changes":[1.8341998E3,4.4813757E2,5.352429E2,1.0697815E2,2.0057478E2,2.5806302E2,1.7160693E2,1.2412231E1,8.2851105E1,7.3107925E1,1.3310193E2,6.116014E1,1.1825435E2,6.477676E1,8.690625E1,5.7024536E0,6.88089E0,1.7126038E1,2.4670296E1,3.962894E1,2.3512566E1,6.0375397E1,7.69003E1,8.79541E0,2.2079874E1,6.681291E1,9.4055E1,2.4750425E1,1.285247E1,3.0647034E1,7.591156E1,0E0,0E0,0E0,0E0,0E0,0E0,0E0,0E0,0E0,0E0,0E0,0E0,0E0,0E0,0E0,0E0,0E0,0E0,0E0,0E0,0E0,0E0,0E0,0E0,0E0,0E0,0E0,0E0,0E0,0E0,0E0,0E0],"parents":[2147483647,0,0,1,1,2,2,3,3,4,4,5,5,6,6,7,7,8,8,9,9,10,10,11,11,12,12,13,13,14,14,15,15,16,16,17,17,18,18,19,19,20,20,21,21,22,22,23,23,24,24,25,25,26,26,27,27,28,28,29,29,30,30],"right_children":[2,4,6,8,10,12,14,16,18,20,22,24,26,28,30,32,34,36,38,40,42,44,46,48,50,52,54,56,58,60,62,-1,-1,-1,-1,-1,-1,-1,-1,-1,-1,-1,-1,-1,-1,-1,-1,-1,-1,-1,-1,-1,-1,-1,-1,-1,-1,-1,-1,-1,-1,-1,-1],"split_conditions":[2.6193447E-10,-2.3643116E-2,1.4E1,3.0028242E-1,1.632932E4,-5.7760674E-1,-6.44307E-1,-4.553503E-1,1.4E1,8.0564135E-1,6.134464E-1,2.9103248E0,3E0,2.7664E0,1.6E1,1.459049E4,2.5831E2,-3.0568996E-1,5.0201807E-2,1.5E1,8.782985E-2,8.5889417E-1,1.813E1,5.6017333E-1,1.030507E4,1.139391E4,7.9971015E-1,2.266902E4,6.8090367E0,8.41176E-2,1.0772543E1,2.1590497E-2,3.88683E-2,3.1210462E-2,1.2040258E-2,3.0530194E-2,1.8673008E-2,5.342664E-3,2.1109106E-2,6.464521E-3,-1.0486471E-2,-3.7725683E-2,-1.4815183E-2,2.0466266E-2,4.0759966E-3,-5.311125E-3,1.0335272E-2,3.9755326E-2,2.6148418E-2,-4.2933498E-2,8.501129E-3,-4.980044E-2,-1.14084175E-2,7.6164887E-3,-7.4128024E-3,3.7060988E-3,2.3988312E-2,-5.3001167E-3,-1.570495E-2,-2.8642867E-2,-1.9500742E-2,-1.3741635E-2,-4.0710744E-2],"split_indices":[4,0,6,3,9,1,0,0,6,1,3,3,6,3,6,9,7,0,2,6,2,1,7,3,9,9,0,9,4,2,3,0,0,0,0,0,0,0,0,0,0,0,0,0,0,0,0,0,0,0,0,0,0,0,0,0,0,0,0,0,0,0,0],"split_type":[0,0,0,0,0,0,0,0,0,0,0,0,0,0,0,0,0,0,0,0,0,0,0,0,0,0,0,0,0,0,0,0,0,0,0,0,0,0,0,0,0,0,0,0,0,0,0,0,0,0,0,0,0,0,0,0,0,0,0,0,0,0,0],"sum_hessian":[3.4160863E4,1.3952324E4,2.020854E4,4.9839175E3,8.968407E3,7.368994E3,1.2839546E4,2.2003518E3,2.7835657E3,1.8575665E3,7.1108403E3,1.3660323E3,6.002962E3,2.0612515E3,1.0778294E4,1.182248E3,1.0181037E3,1.5680641E3,1.2155015E3,1.3851298E3,4.7243683E2,3.8796262E3,3.231214E3,9.057951E2,4.6023727E2,1.7220735E3,4.2808887E3,7.033284E2,1.3579231E3,3.723304E3,7.05499E3,5.8527668E1,1.1237203E3,9.653981E2,5.270563E1,1.1340117E3,4.340524E2,8.6903674E2,3.4646475E2,7.511966E2,6.339331E2,1.8776166E2,2.8467517E2,3.196654E3,6.829723E2,1.340604E3,1.8906101E3,1.5137631E2,7.544188E2,1.99292E1,4.4030807E2,1.2025307E2,1.6018203E3,2.5002876E3,1.780601E3,4.8710065E2,2.1622778E2,9.1896857E2,4.389545E2,1.9244905E3,1.7988136E3,6.7849834E3,2.7000653E2],"tree_param":{"num_deleted":"0","num_feature":"10","num_nodes":"63","size_leaf_vector":"1"}},{"base_weights":[3.6299222E-3,3.0966863E-1,-1.6595793E-1,5.2423453E-1,1.6758488E-1,4.584152E-2,-2.9478765E-1,6.289363E-1,3.1965768E-1,2.5328025E-1,-5.7628043E-2,2.6084724E-1,-8.8879935E-2,-1.95551E-1,-4.4664466E-1,6.354278E-1,-6.7163754E-1,4.5752004E-1,1.7323957E-1,3.4526476E-1,7.464893E-2,-2.4116248E-1,8.4171005E-2,4.1580945E-1,-7.348134E-2,-3.1582427E-1,-2.9629067E-4,4.4950243E-2,-2.4788544E-1,-2.410485E-1,-5.2905816E-1,2.8974533E-2,3.8086575E-2,-8.98116E-2,-1.4471404E-2,2.7153427E-2,1.7086914E-2,5.0194184E-3,1.8266194E-2,8.022069E-3,2.11152E-2,-1.1803178E-2,8.237927E-3,-5.945403E-3,-2.628538E-2,8.392341E-3,-1.0654456E-2,8.687838E-3,2.4536692E-2,5.0364505E-3,-1.4640977E-2,-3.707929E-2,-1.1964167E-2,2.0203718E-3,-1.8768916E-2,1.1715649E-2,-8.676042E-3,-1.880095E-2,-9.171094E-3,-1.4789293E-2,7.235241E-3,-2.8068382E-2,-9.751943E-3],"categories":[],"categories_nodes":[],"categories_segments":[],"categories_sizes":[],"default_left":[0,0,0,1,0,0,0,0,0,0,0,0,0,0,0,0,0,0,0,0,0,0,0,0,0,0,0,0,0,0,0,0,0,0,0,0,0,0,0,0,0,0,0,0,0,0,0,0,0,0,0,0,0,0,0,0,0,0,0,0,0,0,0],"id":19,"left_children":[1,3,5,7,9,11,13,15,17,19,21,23,25,27,29,31,33,35,37,39,41,43,45,47,49,51,53,55,57,59,61,-1,-1,-1,-1,-1,-1,-1,-1,-1,-1,-1,-1,-1,-1,-1,-1,-1,-1,-1,-1,-1,-1,-1,-1,-1,-1,-1,-1,-1,-1,-1,-1],"loss_changes":[1.7702397E3,3.7058557E2,5.988696E2,1.0335498E2,1.4129381E2,2.4052878E2,2.0547595E2,2.7887817E1,3.302542E1,8.707416E1,5.2587757E1,1.657801E2,1.0263988E2,1.0394595E2,9.110303E1,2.1635132E1,6.2137733E0,8.003403E0,1.1127857E1,4.9693115E1,5.061133E1,3.0506874E1,2.8440838E1,3.9472992E1,3.8833645E1,4.635614E1,5.6125137E1,6.1197968E1,5.5876465E1,3.274076E1,4.130078E1,0E0,0E0,0E0,0E0,0E0,0E0,0E0,0E0,0E0,0E0,0E0,0E0,0E0,0E0,0E0,0E0,0E0,0E0,0E0,0E0,0E0,0E0,0E0,0E0,0E0,0E0,0E0,0E0,0E0,0E0,0E0,0E0],"parents":[2147483647,0,0,1,1,2,2,3,3,4,4,5,5,6,6,7,7,8,8,9,9,10,10,11,11,12,12,13,13,14,14,15,15,16,16,17,17,18,18,19,19,20,20,21,21,22,22,23,23,24,24,25,25,26,26,27,27,28,28,29,29,30,30],"right_children":[2,4,6,8,10,12,14,16,18,20,22,24,26,28,30,32,34,36,38,40,42,44,46,48,50,52,54,56,58,60,62,-1,-1,-1,-1,-1,-1,-1,-1,-1,-1,-1,-1,-1,-1,-1,-1,-1,-1,-1,-1,-1,-1,-1,-1,-1,-1,-1,-1,-1,-1,-1,-1],"split_conditions":[2.4738256E-10,7.077063E-2,1.4E1,1.0586996E0,1.7E1,2.0718437E-1,1.106073E-2,1.14667E-2,1.4E1,7.548577E-1,4.4369757E-2,3.1430395E0,3E0,-5.9490216E-1,-2.4902521E-1,2.305632E4,1.427172E4,-3.8277543E-1,2.1E1,-1.6417634E-2,1.705347E4,1.1125049E-2,8.9885277E-1,3E0,4.8748684E0,1.379491E4,4.8722944E0,3.5703068E0,1.6E1,2.1E1,2.505855E4,2.8974533E-2,3.8086575E-2,-8.98116E-2,-1.4471404E-2,2.7153427E-2,1.7086914E-2,5.0194184E-3,1.8266194E-2,8.022069E-3,2.11152E-2,-1.1803178E-2,8.237927E-3,-5.945403E-3,-2.628538E-2,8.392341E-3,-1.0654456E-2,8.687838E-3,2.4536692E-2,5.0364505E-3,-1.4640977E-2,-3.707929E-2,-1.1964167E-2,2.0203718E-3,-1.8768916E-2,1.1715649E-2,-8.676042E-3,-1.880095E-2,-9.171094E-3,-1.4789293E-2,7.235241E-3,-2.8068382E-2,-9.751943E-3],"split_indices":[4,0,6,3,6,0,5,5,6,1,2,3,6,0,0,9,9,0,6,2,9,5,1,6,4,9,3,3,6,6,9,0,0,0,0,0,0,0,0,0,0,0,0,0,0,0,0,0,0,0,0,0,0,0,0,0,0,0,0,0,0,0,0],"split_type":[0,0,0,0,0,0,0,0,0,0,0,0,0,0,0,0,0,0,0,0,0,0,0,0,0,0,0,0,0,0,0,0,0,0,0,0,0,0,0,0,0,0,0,0,0,0,0,0,0,0,0,0,0,0,0,0,0,0,0,0,0,0,0],"sum_hessian":[3.410439E4,1.2159561E4,2.1944828E4,4.842039E3,7.3175215E3,8.300264E3,1.3644564E4,3.2000933E3,1.641946E3,5.300419E3,2.0171024E3,3.1966958E3,5.103568E3,8.254759E3,5.3898057E3,3.1852178E3,1.4875328E1,8.4349255E2,7.9845355E2,3.4975322E3,1.8028868E3,8.785584E2,1.1385441E3,2.183944E3,1.0127517E3,1.4313728E3,3.672195E3,1.4753083E3,6.7794507E3,1.5445299E3,3.8452756E3,2.2152908E3,9.69927E2,1.8963623E0,1.2978966E1,4.8083438E2,3.6265814E2,5.811049E2,2.1734862E2,1.0307776E3,2.4667546E3,4.0458224E2,1.3983046E3,6.165111E2,2.6204733E2,8.8913257E2,2.4941144E2,5.1779144E2,1.6661527E3,5.6504425E2,4.4770743E2,2.154649E2,1.2159078E3,3.314312E3,3.5788306E2,7.9022516E2,6.850832E2,2.2658923E3,4.513558E3,1.3530082E3,1.9152173E2,3.5048884E3,3.403871E2],"tree_param":{"num_deleted":"0","num_feature":"10","num_nodes":"63","size_leaf_vector":"1"}},{"base_weights":[3.6414848E-3,2.8305492E-1,-1.7145881E-1,5.070149E-1,1.0507318E-1,-2.5206435E-2,-2.8887308E-1,6.2831235E-1,3.969563E-1,1.887622E-1,-1.0755608E-1,2.1210635E-1,-1.1639014E-1,-2.3948456E-1,-4.840162E-1,6.983766E-1,4.8390073E-1,5.2356327E-1,2.738596E-1,1.4086443E-2,2.804294E-1,-2.4016824E-1,-2.2600299E-2,3.066855E-1,3.6403175E-2,-2.5639555E-1,1.886686E-2,-9.4894476E-2,-3.1483117E-1,-4.3885776E-1,-6.857887E-1,1.1229536E-2,3.578728E-2,3.0291313E-2,1.7640335E-2,2.870801E-2,1.7097091E-2,9.306389E-3,2.0336585E-2,1.7739829E-2,-2.2194742E-3,2.3186333E-2,1.11696E-2,1.6222202E-3,-1.5085245E-2,1.625025E-3,-1.3846439E-2,2.1997144E-2,1.0306156E-2,1.637463E-2,-1.9880866E-3,-8.141764E-3,-2.3679918E-2,5.997651E-3,-7.332913E-3,-9.272735E-3,2.2869182E-3,-1.2389472E-2,-2.259373E-2,-1.709399E-2,-2.622974E-2,-2.5107563E-2,-3.967485E-2],"categories":[],"categories_nodes":[],"categories_segments":[],"categories_sizes":[],"default_left":[1,0,0,0,0,0,0,0,0,0,0,0,0,0,0,0,0,0,0,0,0,0,0,0,0,0,0,0,0,0,0,0,0,0,0,0,0,0,0,0,0,0,0,0,0,0,0,0,0,0,0,0,0,0,0,0,0,0,0,0,0,0,0],"id":20,"left_children":[1,3,5,7,9,11,13,15,17,19,21,23,25,27,29,31,33,35,37,39,41,43,45,47,49,51,53,55,57,59,61,-1,-1,-1,-1,-1,-1,-1,-1,-1,-1,-1,-1,-1,-1,-1,-1,-1,-1,-1,-1,-1,-1,-1,-1,-1,-1,-1,-1,-1,-1,-1,-1],"loss_changes":[1.6686763E3,5.2364246E2,3.6003516E2,7.716638E1,1.3036505E2,2.0213931E2,1.1185602E2,2.7291626E1,4.733426E1,8.4152054E1,2.3306973E1,4.3068657E1,1.27796005E2,1.01094666E2,2.078302E1,1.4956909E1,1.4109421E1,1.3429474E1,1.7957481E1,3.61142E1,3.583017E1,1.357391E1,1.7727755E1,2.240422E1,2.0193703E1,6.723143E1,5.749563E1,4.0564415E1,5.5850586E1,1.5632904E1,7.622299E0,0E0,0E0,0E0,0E0,0E0,0E0,0E0,0E0,0E0,0E0,0E0,0E0,0E0,0E0,0E0,0E0,0E0,0E0,0E0,0E0,0E0,0E0,0E0,0E0,0E0,0E0,0E0,0E0,0E0,0E0,0E0,0E0],"parents":[2147483647,0,0,1,1,2,2,3,3,4,4,5,5,6,6,7,7,8,8,9,9,10,10,11,11,12,12,13,13,14,14,15,15,16,16,17,17,18,18,19,19,20,20,21,21,22,22,23,23,24,24,25,25,26,26,27,27,28,28,29,29,30,30],"right_children":[2,4,6,8,10,12,14,16,18,20,22,24,26,28,30,32,34,36,38,40,42,44,46,48,50,52,54,56,58,60,62,-1,-1,-1,-1,-1,-1,-1,-1,-1,-1,-1,-1,-1,-1,-1,-1,-1,-1,-1,-1,-1,-1,-1,-1,-1,-1,-1,-1,-1,-1,-1,-1],"split_conditions":[1.3220396E0,2.8362623E-1,5.57E2,8.9E1,9.0421426E-1,-2.1496277E-1,8.377219E-1,-7.280336E-2,-4.4984517E-1,2.566867E-2,1.357414E-1,2.4924645E0,8.367E1,2.8389587E0,7.6054983E0,1.0457052E-2,4.2E1,2.48E2,6.183E1,2.8E1,4.4E1,1.0540745E-2,2.34E2,-7.045732E-1,-8.745467E-1,1.1113303E-2,8.319311E-1,3.7067E2,1.1111488E-2,9.2663515E-1,1.803E3,1.1229536E-2,3.578728E-2,3.0291313E-2,1.7640335E-2,2.870801E-2,1.7097091E-2,9.306389E-3,2.0336585E-2,1.7739829E-2,-2.2194742E-3,2.3186333E-2,1.11696E-2,1.6222202E-3,-1.5085245E-2,1.625025E-3,-1.3846439E-2,2.1997144E-2,1.0306156E-2,1.637463E-2,-1.9880866E-3,-8.141764E-3,-2.3679918E-2,5.997651E-3,-7.332913E-3,-9.272735E-3,2.2869182E-3,-1.2389472E-2,-2.259373E-2,-1.709399E-2,-2.622974E-2,-2.5107563E-2,-3.967485E-2],"split_indices":[3,0,8,8,0,0,0,0,1,2,2,4,7,4,3,5,8,8,7,8,8,5,8,0,0,5,0,7,5,1,8,0,0,0,0,0,0,0,0,0,0,0,0,0,0,0,0,0,0,0,0,0,0,0,0,0,0,0,0,0,0,0,0],"split_type":[0,0,0,0,0,0,0,0,0,0,0,0,0,0,0,0,0,0,0,0,0,0,0,0,0,0,0,0,0,0,0,0,0,0,0,0,0,0,0,0,0,0,0,0,0,0,0,0,0,0,0,0,0,0,0,0,0,0,0,0,0,0,0],"sum_hessian":[3.4102574E4,1.3137457E4,2.0965117E4,5.8156934E3,7.321764E3,9.337128E3,1.1627989E4,2.762108E3,3.0535854E3,5.254043E3,2.067721E3,2.5910537E3,6.746074E3,9.283019E3,2.3449714E3,1.8546261E3,9.0748175E2,1.5021221E3,1.5514634E3,1.809077E3,3.444966E3,8.059755E2,1.2617455E3,1.6834042E3,9.076496E2,3.3139702E3,3.4321038E3,3.1817537E3,6.1012646E3,1.9213145E3,4.2365717E2,6.65716E1,1.7880546E3,4.664302E2,4.4105154E2,1.1714513E3,3.306708E2,9.3735516E2,6.141082E2,2.6352325E2,1.5455537E3,8.141916E2,2.6307744E3,1.4860188E2,6.5737366E2,1.0384973E3,2.232482E2,7.2110394E2,9.623002E2,1.8686884E2,7.2078076E2,2.3186917E3,9.952787E2,2.1311572E3,1.3009467E3,1.9350471E3,1.2467065E3,4.1007773E3,2.000487E3,9.062366E2,1.0150778E3,1.6080934E2,2.628478E2],"tree_param":{"num_deleted":"0","num_feature":"10","num_nodes":"63","size_leaf_vector":"1"}},{"base_weights":[2.3809718E-3,2.8580105E-1,-1.4970131E-1,5.138743E-1,1.5962125E-1,4.171721E-2,-2.6373336E-1,6.625327E-1,3.7631357E-1,-5.3457607E-2,2.3888446E-1,3.6426392E-1,-5.5788763E-2,1.0780345E-2,-3.0712685E-1,7.463515E-2,6.832294E-1,5.097889E-1,1.9636531E-1,4.4842694E-2,-2.9706603E-1,3.096159E-1,2.1694226E-2,5.2332735E-1,6.901994E-2,4.4749226E-2,-2.2923224E-1,5.083438E-1,-5.3648517E-2,-3.4134525E-1,-1.0539311E-1,1.0266027E-2,-5.4109138E-2,3.6018714E-2,2.4138888E-2,3.0984554E-2,1.9285252E-2,5.7786307E-3,2.128016E-2,-1.045349E-2,6.513686E-3,-5.0605226E-2,-1.2770461E-2,1.9478211E-2,6.913376E-3,-9.047504E-3,8.952092E-3,1.4442389E-2,2.9713718E-2,6.9724666E-3,-2.7986158E-2,7.340887E-3,-5.3205937E-3,-2.307736E-2,-7.0895017E-3,-1.1674536E-3,3.071641E-2,6.482001E-3,-7.031108E-3,-2.3040451E-2,-1.4182831E-2,-1.7675277E-3,-4.4527736E-2],"categories":[],"categories_nodes":[],"categories_segments":[],"categories_sizes":[],"default_left":[0,0,0,0,0,0,0,0,0,0,0,0,0,0,0,0,0,0,0,0,0,0,0,0,0,0,0,0,0,0,0,0,0,0,0,0,0,0,0,0,0,0,0,0,0,0,0,0,0,0,0,0,0,0,0,0,0,0,0,0,0,0,0],"id":21,"left_children":[1,3,5,7,9,11,13,15,17,19,21,23,25,27,29,31,33,35,37,39,41,43,45,47,49,51,53,55,57,59,61,-1,-1,-1,-1,-1,-1,-1,-1,-1,-1,-1,-1,-1,-1,-1,-1,-1,-1,-1,-1,-1,-1,-1,-1,-1,-1,-1,-1,-1,-1,-1,-1],"loss_changes":[1.4653848E3,3.4149628E2,4.8296268E2,8.595776E1,1.2916763E2,2.598672E2,1.6517358E2,2.458966E1,5.2652588E1,4.9711666E1,8.5608765E1,9.00016E1,1.10671524E2,6.078841E1,8.257727E1,1.1216893E1,1.38984375E1,1.6733765E1,1.7317776E1,3.21593E1,1.7258812E1,5.7485657E1,4.379161E1,2.0387299E1,2.9994976E1,6.203482E1,4.7177208E1,1.2278694E1,2.6804165E1,7.028003E1,9.558606E1,0E0,0E0,0E0,0E0,0E0,0E0,0E0,0E0,0E0,0E0,0E0,0E0,0E0,0E0,0E0,0E0,0E0,0E0,0E0,0E0,0E0,0E0,0E0,0E0,0E0,0E0,0E0,0E0,0E0,0E0,0E0,0E0],"parents":[2147483647,0,0,1,1,2,2,3,3,4,4,5,5,6,6,7,7,8,8,9,9,10,10,11,11,12,12,13,13,14,14,15,15,16,16,17,17,18,18,19,19,20,20,21,21,22,22,23,23,24,24,25,25,26,26,27,27,28,28,29,29,30,30],"right_children":[2,4,6,8,10,12,14,16,18,20,22,24,26,28,30,32,34,36,38,40,42,44,46,48,50,52,54,56,58,60,62,-1,-1,-1,-1,-1,-1,-1,-1,-1,-1,-1,-1,-1,-1,-1,-1,-1,-1,-1,-1,-1,-1,-1,-1,-1,-1,-1,-1,-1,-1,-1,-1],"split_conditions":[2.4738256E-10,-4.9318415E-3,1.4E1,1.1E2,1.709286E4,-3.9337227E-1,-6.898128E-1,1.389773E4,1.4E1,8.049773E-1,1.7E1,2.8346057E0,4.88E2,2.45E2,2.1E1,-5.513762E-3,1.9E1,-4.6935385E-1,2.322235E4,1.44347E4,-1.20398074E-1,7.7888185E-1,4.2731933E-2,3E0,9.25962E0,8.2670826E-1,2E0,-2.896904E-1,2.4924645E0,1.65474E4,8.296321E0,1.0266027E-2,-5.4109138E-2,3.6018714E-2,2.4138888E-2,3.0984554E-2,1.9285252E-2,5.7786307E-3,2.128016E-2,-1.045349E-2,6.513686E-3,-5.0605226E-2,-1.2770461E-2,1.9478211E-2,6.913376E-3,-9.047504E-3,8.952092E-3,1.4442389E-2,2.9713718E-2,6.9724666E-3,-2.7986158E-2,7.340887E-3,-5.3205937E-3,-2.307736E-2,-7.0895017E-3,-1.1674536E-3,3.071641E-2,6.482001E-3,-7.031108E-3,-2.3040451E-2,-1.4182831E-2,-1.7675277E-3,-4.4527736E-2],"split_indices":[4,0,6,8,9,0,0,9,6,0,6,3,8,8,6,1,6,1,9,9,2,0,2,6,3,1,6,2,4,9,3,0,0,0,0,0,0,0,0,0,0,0,0,0,0,0,0,0,0,0,0,0,0,0,0,0,0,0,0,0,0,0,0],"split_type":[0,0,0,0,0,0,0,0,0,0,0,0,0,0,0,0,0,0,0,0,0,0,0,0,0,0,0,0,0,0,0,0,0,0,0,0,0,0,0,0,0,0,0,0,0,0,0,0,0,0,0,0,0,0,0,0,0,0,0,0,0,0,0],"sum_hessian":[3.3993156E4,1.1870176E4,2.212298E4,4.225796E3,7.6443794E3,8.259515E3,1.3863467E4,2.0273053E3,2.1984907E3,2.07281E3,5.5715693E3,1.9159941E3,6.3435205E3,1.8925321E3,1.1970935E4,6.925652E1,1.9580487E3,1.2601316E3,9.383592E2,1.4780306E3,5.9477954E2,4.2022036E3,1.3693656E3,1.2441565E3,6.718376E2,4.0166936E3,2.3268267E3,2.1538702E2,1.677145E3,1.0233695E4,1.7372399E3,6.3704834E1,5.551692E0,1.6475586E3,3.104902E2,6.6401715E2,5.961145E2,6.96051E2,2.4230817E2,3.7137112E2,1.1066594E3,3.017825E1,5.646013E2,2.8635652E3,1.3386385E3,5.984002E2,7.7096545E2,2.913589E2,9.527976E2,6.0556134E2,6.627624E1,2.3977312E3,1.6189625E3,6.339643E2,1.6928624E3,3.6057327E1,1.793297E2,5.394098E2,1.1377352E3,3.327992E3,6.905703E3,1.5968761E3,1.403638E2],"tree_param":{"num_deleted":"0","num_feature":"10","num_nodes":"63","size_leaf_vector":"1"}},{"base_weights":[6.1897025E-3,2.8366917E-1,-1.3993119E-1,4.9433455E-1,1.5034667E-1,4.543584E-2,-2.4901794E-1,6.238864E-1,3.5761246E-1,3.770162E-1,7.726542E-2,3.0887353E-1,-5.362257E-2,5.2806283E-3,-2.8743845E-1,2.4118668E-1,6.4672935E-1,4.8467532E-1,1.9667011E-1,4.4266415E-1,8.4056035E-2,1.7152983E-1,-1.2663677E-1,4.8256183E-1,5.067718E-2,-5.884615E-3,-3.563488E-1,4.632844E-1,-5.2962884E-2,-3.1937844E-1,-9.7947784E-2,2.577301E-2,2.991745E-3,3.684729E-2,2.8626902E-2,1.5317618E-2,2.656273E-2,5.8281147E-3,2.1559788E-2,2.4579039E-2,-4.320566E-3,-1.0012183E-2,1.0225518E-2,5.9954386E-4,1.3107762E-2,-1.12610245E-2,1.14503E-2,8.630839E-3,2.731002E-2,-1.2475567E-2,8.146736E-3,5.3092404E-3,-6.1551216E-3,-1.4533676E-2,-3.3697825E-2,-3.6977097E-2,2.5444597E-2,8.729298E-3,-6.445378E-3,-1.971266E-2,-1.1928051E-2,-2.2234675E-3,-4.195781E-2],"categories":[],"categories_nodes":[],"categories_segments":[],"categories_sizes":[],"default_left":[0,0,0,0,0,0,0,0,0,0,0,0,0,0,0,0,0,0,0,0,0,0,0,0,0,0,0,0,0,0,0,0,0,0,0,0,0,0,0,0,0,0,0,0,0,0,0,0,0,0,0,0,0,0,0,0,0,0,0,0,0,0,0],"id":22,"left_children":[1,3,5,7,9,11,13,15,17,19,21,23,25,27,29,31,33,35,37,39,41,43,45,47,49,51,53,55,57,59,61,-1,-1,-1,-1,-1,-1,-1,-1,-1,-1,-1,-1,-1,-1,-1,-1,-1,-1,-1,-1,-1,-1,-1,-1,-1,-1,-1,-1,-1,-1,-1,-1],"loss_changes":[1.3789617E3,3.2935553E2,4.5051672E2,8.0077515E1,1.19007614E2,2.1545895E2,1.3703339E2,2.0070862E1,4.5137115E1,3.3618286E1,1.0456157E2,1.0113098E2,8.672002E1,4.9207905E1,7.3681335E1,6.6293645E0,1.3875E1,9.951447E0,1.8334812E1,3.711267E1,1.1149068E1,5.377121E1,6.0417473E1,2.6411652E1,3.0732973E1,6.81476E1,1.6658089E1,1.2169441E1,2.8329262E1,6.290149E1,6.970551E1,0E0,0E0,0E0,0E0,0E0,0E0,0E0,0E0,0E0,0E0,0E0,0E0,0E0,0E0,0E0,0E0,0E0,0E0,0E0,0E0,0E0,0E0,0E0,0E0,0E0,0E0,0E0,0E0,0E0,0E0,0E0,0E0],"parents":[2147483647,0,0,1,1,2,2,3,3,4,4,5,5,6,6,7,7,8,8,9,9,10,10,11,11,12,12,13,13,14,14,15,15,16,16,17,17,18,18,19,19,20,20,21,21,22,22,23,23,24,24,25,25,26,26,27,27,28,28,29,29,30,30],"right_children":[2,4,6,8,10,12,14,16,18,20,22,24,26,28,30,32,34,36,38,40,42,44,46,48,50,52,54,56,58,60,62,-1,-1,-1,-1,-1,-1,-1,-1,-1,-1,-1,-1,-1,-1,-1,-1,-1,-1,-1,-1,-1,-1,-1,-1,-1,-1,-1,-1,-1,-1,-1,-1],"split_conditions":[2.4738256E-10,7.077063E-2,1.4E1,1.25E2,4.7E1,-2.0337033E-1,-6.973574E-1,1.459049E4,1.4E1,2E1,1.6E1,5.02E2,1.033E3,2.45E2,2.1E1,4E1,-4.9467188E-1,3E0,2.305632E4,9.3404114E-1,-2.0478884E-2,-4.41E0,2.339162E4,2E0,1.567497E4,7.891073E-1,3.012E3,-5.9143E2,1.8457268E0,7.781E1,2.189E3,2.577301E-2,2.991745E-3,3.684729E-2,2.8626902E-2,1.5317618E-2,2.656273E-2,5.8281147E-3,2.1559788E-2,2.4579039E-2,-4.320566E-3,-1.0012183E-2,1.0225518E-2,5.9954386E-4,1.3107762E-2,-1.12610245E-2,1.14503E-2,8.630839E-3,2.731002E-2,-1.2475567E-2,8.146736E-3,5.3092404E-3,-6.1551216E-3,-1.4533676E-2,-3.3697825E-2,-3.6977097E-2,2.5444597E-2,8.729298E-3,-6.445378E-3,-1.971266E-2,-1.1928051E-2,-2.2234675E-3,-4.195781E-2],"split_indices":[4,0,6,8,8,0,0,9,6,6,6,8,8,8,6,8,0,6,9,0,2,7,9,6,9,0,8,7,4,7,8,0,0,0,0,0,0,0,0,0,0,0,0,0,0,0,0,0,0,0,0,0,0,0,0,0,0,0,0,0,0,0,0],"split_type":[0,0,0,0,0,0,0,0,0,0,0,0,0,0,0,0,0,0,0,0,0,0,0,0,0,0,0,0,0,0,0,0,0,0,0,0,0,0,0,0,0,0,0,0,0,0,0,0,0,0,0,0,0,0,0,0,0,0,0,0,0,0,0],"sum_hessian":[3.400623E4,1.1729795E4,2.2276434E4,4.544124E3,7.185671E3,8.253218E3,1.4023217E4,2.3295854E3,2.2145386E3,1.749887E3,5.435784E3,2.2541787E3,5.999039E3,1.8408284E3,1.2182389E4,1.3252054E2,2.1970647E3,1.2352748E3,9.7926385E2,1.4287122E3,3.2117487E2,3.7174956E3,1.7182886E3,1.346591E3,9.075877E2,5.18365E3,8.15389E2,2.0611484E2,1.6347136E3,1.0423982E4,1.7584059E3,5.128034E1,8.12402E1,9.833947E2,1.21367E3,2.5897488E2,9.762999E2,7.3216833E2,2.470955E2,1.307927E3,1.20785095E2,9.5187E1,2.2598787E2,1.347533E3,2.3699626E3,1.3459315E3,3.7235703E2,2.3065149E2,1.1159395E3,2.4635718E2,6.612306E2,2.6501177E3,2.5335322E3,6.788467E2,1.3654228E2,6.4180555E0,1.996968E2,4.084124E2,1.2263011E3,5.4069033E3,5.017079E3,1.6420513E3,1.1635455E2],"tree_param":{"num_deleted":"0","num_feature":"10","num_nodes":"63","size_leaf_vector":"1"}},{"base_weights":[6.8304082E-3,2.7282047E-1,-1.3103135E-1,4.4412467E-1,1.23331666E-1,4.2149644E-2,-2.3179284E-1,5.3567547E-1,2.3205392E-1,-1.4462274E-1,1.8953148E-1,3.2189944E-1,-3.9757516E-2,-1.3969092E-1,-3.361674E-1,6.765953E-1,4.586906E-1,3.5035825E-1,1.1900665E-1,-9.544817E-3,-3.8269773E-1,2.930749E-1,6.2360384E-2,5.095651E-1,6.1907835E-2,-2.3217992E-1,3.6746226E-2,-2.7384108E-1,-7.150434E-2,-9.530243E-2,-3.90716E-1,3.6588714E-2,2.2791332E-2,2.9005958E-2,1.6423367E-2,3.0089313E-2,1.3777683E-2,1.047163E-2,-2.084044E-3,-4.3223584E-3,1.0644364E-2,-3.2246824E-2,-1.1579811E-3,1.6877094E-2,2.7123562E-3,7.7960487E-3,-5.608901E-3,1.0086216E-2,2.8585032E-2,7.092286E-3,-2.1916512E-2,-3.657896E-2,-9.216287E-3,6.3652643E-3,-4.094778E-3,-2.5920158E-3,-1.6887344E-2,-2.7637768E-3,-3.4114454E-2,-7.6371315E-3,1.511491E-2,-2.115137E-2,-8.22163E-3],"categories":[],"categories_nodes":[],"categories_segments":[],"categories_sizes":[],"default_left":[0,0,0,1,0,0,0,0,0,0,1,0,0,0,0,0,0,0,0,0,0,0,0,0,0,0,0,0,0,0,0,0,0,0,0,0,0,0,0,0,0,0,0,0,0,0,0,0,0,0,0,0,0,0,0,0,0,0,0,0,0,0,0],"id":23,"left_children":[1,3,5,7,9,11,13,15,17,19,21,23,25,27,29,31,33,35,37,39,41,43,45,47,49,51,53,55,57,59,61,-1,-1,-1,-1,-1,-1,-1,-1,-1,-1,-1,-1,-1,-1,-1,-1,-1,-1,-1,-1,-1,-1,-1,-1,-1,-1,-1,-1,-1,-1,-1,-1],"loss_changes":[1.2453235E3,2.9676355E2,3.90332E2,1.0462305E2,1.09917244E2,1.8857875E2,1.3584106E2,4.0292725E1,2.1746223E1,3.9487576E1,6.537164E1,9.087848E1,9.374626E1,6.870564E1,8.699982E1,1.551239E1,3.828296E1,1.4649834E1,1.2189459E1,1.3475036E1,4.18815E1,2.9035126E1,3.648077E1,2.0470184E1,3.1460854E1,4.3023483E1,4.8986706E1,3.588591E1,4.9341606E1,2.8100643E1,3.9364136E1,0E0,0E0,0E0,0E0,0E0,0E0,0E0,0E0,0E0,0E0,0E0,0E0,0E0,0E0,0E0,0E0,0E0,0E0,0E0,0E0,0E0,0E0,0E0,0E0,0E0,0E0,0E0,0E0,0E0,0E0,0E0,0E0],"parents":[2147483647,0,0,1,1,2,2,3,3,4,4,5,5,6,6,7,7,8,8,9,9,10,10,11,11,12,12,13,13,14,14,15,15,16,16,17,17,18,18,19,19,20,20,21,21,22,22,23,23,24,24,25,25,26,26,27,27,28,28,29,29,30,30],"right_children":[2,4,6,8,10,12,14,16,18,20,22,24,26,28,30,32,34,36,38,40,42,44,46,48,50,52,54,56,58,60,62,-1,-1,-1,-1,-1,-1,-1,-1,-1,-1,-1,-1,-1,-1,-1,-1,-1,-1,-1,-1,-1,-1,-1,-1,-1,-1,-1,-1,-1,-1,-1,-1],"split_conditions":[2.4738256E-10,2.6049408E-1,1.4E1,1.2685437E0,1.628546E4,-3.9337227E-1,1.1010203E-2,4.7E1,1.4E1,1.1064193E-2,5.6017333E-1,4.75E2,3E0,1.6E1,-5.5150604E-1,1.9E1,-3.166334E-1,-6.6681564E-1,1.1086616E-2,2E1,1.11895185E-2,1.9E1,8.2112956E-1,2E0,7.6054983E0,1.203613E4,7.9971015E-1,5.65E2,1.0772543E1,2.1E1,2.1E1,3.6588714E-2,2.2791332E-2,2.9005958E-2,1.6423367E-2,3.0089313E-2,1.3777683E-2,1.047163E-2,-2.084044E-3,-4.3223584E-3,1.0644364E-2,-3.2246824E-2,-1.1579811E-3,1.6877094E-2,2.7123562E-3,7.7960487E-3,-5.608901E-3,1.0086216E-2,2.8585032E-2,7.092286E-3,-2.1916512E-2,-3.657896E-2,-9.216287E-3,6.3652643E-3,-4.094778E-3,-2.5920158E-3,-1.6887344E-2,-2.7637768E-3,-3.4114454E-2,-7.6371315E-3,1.511491E-2,-2.115137E-2,-8.22163E-3],"split_indices":[4,0,6,3,9,0,5,8,6,5,3,8,6,6,0,6,0,1,5,6,5,6,0,6,3,9,0,8,3,6,6,0,0,0,0,0,0,0,0,0,0,0,0,0,0,0,0,0,0,0,0,0,0,0,0,0,0,0,0,0,0,0,0],"split_type":[0,0,0,0,0,0,0,0,0,0,0,0,0,0,0,0,0,0,0,0,0,0,0,0,0,0,0,0,0,0,0,0,0,0,0,0,0,0,0,0,0,0,0,0,0,0,0,0,0,0,0,0,0,0,0,0,0,0,0,0,0,0,0],"sum_hessian":[3.3956465E4,1.1590954E4,2.236551E4,5.3995205E3,6.191434E3,8.226906E3,1.4138603E4,3.7692751E3,1.6302455E3,1.2261251E3,4.9653086E3,1.861882E3,6.365025E3,7.513361E3,6.625242E3,1.3261669E3,2.4431084E3,7.945491E2,8.356965E2,7.8360626E2,4.4251886E2,2.7354668E3,2.2298418E3,1.0802339E3,7.8164813E2,1.8095557E3,4.555469E3,2.5299368E3,4.983424E3,1.2243762E3,5.400866E3,1.0572804E3,2.688865E2,1.2606699E3,1.1824384E3,1.7895808E2,6.1559094E2,5.3437396E2,3.0132245E2,5.831977E2,2.0040857E2,2.5496542E2,1.8755345E2,2.3054011E3,4.3006564E2,1.4518156E3,7.7802637E2,1.8284583E2,8.97388E2,6.7518646E2,1.064617E2,1.557366E2,1.6538191E3,2.5834104E3,1.9720586E3,5.6630096E2,1.9636357E3,4.856564E3,1.2685992E2,1.0708983E3,1.5347784E2,4.7245063E3,6.763598E2],